digraph Tree {
node [shape=box, fontname="helvetica"] ;
edge [fontname="helvetica"] ;
0 [label="shell_weight_g <= 0.152\nentropy = 3.585\nsamples = 3176\nvalue = [1, 10, 43, 84, 201, 301, 441, 539, 483, 355, 199\n154, 98, 72, 51, 44, 27, 25, 21, 10, 4, 8, 1\n1, 1, 1, 1]"] ;
1 [label="shell_weight_g <= 0.047\nentropy = 2.978\nsamples = 983\nvalue = [1, 10, 43, 84, 194, 242, 193, 93, 54, 26, 18, 13\n4, 3, 4, 0, 1, 0, 0, 0, 0, 0, 0, 0, 0, 0\n0]"] ;
0 -> 1 [labeldistance=2.5, labelangle=45, headlabel="True"] ;
2 [label="shell_weight_g <= 0.021\nentropy = 2.461\nsamples = 215\nvalue = [1, 10, 42, 66, 53, 27, 11, 4, 0, 1, 0, 0, 0\n0, 0, 0, 0, 0, 0, 0, 0, 0, 0, 0, 0, 0, 0]"] ;
1 -> 2 ;
3 [label="viscera_weight_g <= 0.012\nentropy = 1.887\nsamples = 67\nvalue = [1, 10, 31, 20, 3, 2, 0, 0, 0, 0, 0, 0, 0, 0\n0, 0, 0, 0, 0, 0, 0, 0, 0, 0, 0, 0, 0]"] ;
2 -> 3 ;
4 [label="shucked_weight_g <= 0.005\nentropy = 1.746\nsamples = 46\nvalue = [1, 10, 24, 9, 0, 2, 0, 0, 0, 0, 0, 0, 0, 0\n0, 0, 0, 0, 0, 0, 0, 0, 0, 0, 0, 0, 0]"] ;
3 -> 4 ;
5 [label="shucked_weight_g <= 0.002\nentropy = 0.918\nsamples = 3\nvalue = [1, 2, 0, 0, 0, 0, 0, 0, 0, 0, 0, 0, 0, 0\n0, 0, 0, 0, 0, 0, 0, 0, 0, 0, 0, 0, 0]"] ;
4 -> 5 ;
6 [label="entropy = 0.0\nsamples = 1\nvalue = [1, 0, 0, 0, 0, 0, 0, 0, 0, 0, 0, 0, 0, 0\n0, 0, 0, 0, 0, 0, 0, 0, 0, 0, 0, 0, 0]"] ;
5 -> 6 ;
7 [label="entropy = 0.0\nsamples = 2\nvalue = [0, 2, 0, 0, 0, 0, 0, 0, 0, 0, 0, 0, 0, 0\n0, 0, 0, 0, 0, 0, 0, 0, 0, 0, 0, 0, 0]"] ;
5 -> 7 ;
8 [label="shell_weight_g <= 0.015\nentropy = 1.599\nsamples = 43\nvalue = [0, 8, 24, 9, 0, 2, 0, 0, 0, 0, 0, 0, 0, 0\n0, 0, 0, 0, 0, 0, 0, 0, 0, 0, 0, 0, 0]"] ;
4 -> 8 ;
9 [label="shell_weight_g <= 0.007\nentropy = 1.403\nsamples = 38\nvalue = [0, 8, 22, 8, 0, 0, 0, 0, 0, 0, 0, 0, 0, 0\n0, 0, 0, 0, 0, 0, 0, 0, 0, 0, 0, 0, 0]"] ;
8 -> 9 ;
10 [label="is_male <= 0.5\nentropy = 0.469\nsamples = 10\nvalue = [0, 1, 9, 0, 0, 0, 0, 0, 0, 0, 0, 0, 0, 0\n0, 0, 0, 0, 0, 0, 0, 0, 0, 0, 0, 0, 0]"] ;
9 -> 10 ;
11 [label="entropy = 0.0\nsamples = 8\nvalue = [0, 0, 8, 0, 0, 0, 0, 0, 0, 0, 0, 0, 0, 0\n0, 0, 0, 0, 0, 0, 0, 0, 0, 0, 0, 0, 0]"] ;
10 -> 11 ;
12 [label="shucked_weight_g <= 0.008\nentropy = 1.0\nsamples = 2\nvalue = [0, 1, 1, 0, 0, 0, 0, 0, 0, 0, 0, 0, 0, 0\n0, 0, 0, 0, 0, 0, 0, 0, 0, 0, 0, 0, 0]"] ;
10 -> 12 ;
13 [label="entropy = 0.0\nsamples = 1\nvalue = [0, 1, 0, 0, 0, 0, 0, 0, 0, 0, 0, 0, 0, 0\n0, 0, 0, 0, 0, 0, 0, 0, 0, 0, 0, 0, 0]"] ;
12 -> 13 ;
14 [label="entropy = 0.0\nsamples = 1\nvalue = [0, 0, 1, 0, 0, 0, 0, 0, 0, 0, 0, 0, 0, 0\n0, 0, 0, 0, 0, 0, 0, 0, 0, 0, 0, 0, 0]"] ;
12 -> 14 ;
15 [label="height_mm <= 0.032\nentropy = 1.53\nsamples = 28\nvalue = [0, 7, 13, 8, 0, 0, 0, 0, 0, 0, 0, 0, 0, 0\n0, 0, 0, 0, 0, 0, 0, 0, 0, 0, 0, 0, 0]"] ;
9 -> 15 ;
16 [label="shell_weight_g <= 0.01\nentropy = 0.918\nsamples = 3\nvalue = [0, 1, 0, 2, 0, 0, 0, 0, 0, 0, 0, 0, 0, 0\n0, 0, 0, 0, 0, 0, 0, 0, 0, 0, 0, 0, 0]"] ;
15 -> 16 ;
17 [label="entropy = 0.0\nsamples = 2\nvalue = [0, 0, 0, 2, 0, 0, 0, 0, 0, 0, 0, 0, 0, 0\n0, 0, 0, 0, 0, 0, 0, 0, 0, 0, 0, 0, 0]"] ;
16 -> 17 ;
18 [label="entropy = 0.0\nsamples = 1\nvalue = [0, 1, 0, 0, 0, 0, 0, 0, 0, 0, 0, 0, 0, 0\n0, 0, 0, 0, 0, 0, 0, 0, 0, 0, 0, 0, 0]"] ;
16 -> 18 ;
19 [label="height_mm <= 0.043\nentropy = 1.479\nsamples = 25\nvalue = [0, 6, 13, 6, 0, 0, 0, 0, 0, 0, 0, 0, 0, 0\n0, 0, 0, 0, 0, 0, 0, 0, 0, 0, 0, 0, 0]"] ;
15 -> 19 ;
20 [label="diam_mm <= 0.13\nentropy = 0.863\nsamples = 7\nvalue = [0, 0, 5, 2, 0, 0, 0, 0, 0, 0, 0, 0, 0, 0\n0, 0, 0, 0, 0, 0, 0, 0, 0, 0, 0, 0, 0]"] ;
19 -> 20 ;
21 [label="entropy = 0.0\nsamples = 3\nvalue = [0, 0, 3, 0, 0, 0, 0, 0, 0, 0, 0, 0, 0, 0\n0, 0, 0, 0, 0, 0, 0, 0, 0, 0, 0, 0, 0]"] ;
20 -> 21 ;
22 [label="length_mm <= 0.188\nentropy = 1.0\nsamples = 4\nvalue = [0, 0, 2, 2, 0, 0, 0, 0, 0, 0, 0, 0, 0, 0\n0, 0, 0, 0, 0, 0, 0, 0, 0, 0, 0, 0, 0]"] ;
20 -> 22 ;
23 [label="entropy = 0.0\nsamples = 2\nvalue = [0, 0, 0, 2, 0, 0, 0, 0, 0, 0, 0, 0, 0, 0\n0, 0, 0, 0, 0, 0, 0, 0, 0, 0, 0, 0, 0]"] ;
22 -> 23 ;
24 [label="entropy = 0.0\nsamples = 2\nvalue = [0, 0, 2, 0, 0, 0, 0, 0, 0, 0, 0, 0, 0, 0\n0, 0, 0, 0, 0, 0, 0, 0, 0, 0, 0, 0, 0]"] ;
22 -> 24 ;
25 [label="viscera_weight_g <= 0.006\nentropy = 1.53\nsamples = 18\nvalue = [0, 6, 8, 4, 0, 0, 0, 0, 0, 0, 0, 0, 0, 0\n0, 0, 0, 0, 0, 0, 0, 0, 0, 0, 0, 0, 0]"] ;
19 -> 25 ;
26 [label="entropy = 0.0\nsamples = 2\nvalue = [0, 2, 0, 0, 0, 0, 0, 0, 0, 0, 0, 0, 0, 0\n0, 0, 0, 0, 0, 0, 0, 0, 0, 0, 0, 0, 0]"] ;
25 -> 26 ;
27 [label="viscera_weight_g <= 0.008\nentropy = 1.5\nsamples = 16\nvalue = [0, 4, 8, 4, 0, 0, 0, 0, 0, 0, 0, 0, 0, 0\n0, 0, 0, 0, 0, 0, 0, 0, 0, 0, 0, 0, 0]"] ;
25 -> 27 ;
28 [label="diam_mm <= 0.142\nentropy = 0.954\nsamples = 8\nvalue = [0, 0, 5, 3, 0, 0, 0, 0, 0, 0, 0, 0, 0, 0\n0, 0, 0, 0, 0, 0, 0, 0, 0, 0, 0, 0, 0]"] ;
27 -> 28 ;
29 [label="height_mm <= 0.087\nentropy = 0.811\nsamples = 4\nvalue = [0, 0, 1, 3, 0, 0, 0, 0, 0, 0, 0, 0, 0, 0\n0, 0, 0, 0, 0, 0, 0, 0, 0, 0, 0, 0, 0]"] ;
28 -> 29 ;
30 [label="entropy = 0.0\nsamples = 3\nvalue = [0, 0, 0, 3, 0, 0, 0, 0, 0, 0, 0, 0, 0, 0\n0, 0, 0, 0, 0, 0, 0, 0, 0, 0, 0, 0, 0]"] ;
29 -> 30 ;
31 [label="entropy = 0.0\nsamples = 1\nvalue = [0, 0, 1, 0, 0, 0, 0, 0, 0, 0, 0, 0, 0, 0\n0, 0, 0, 0, 0, 0, 0, 0, 0, 0, 0, 0, 0]"] ;
29 -> 31 ;
32 [label="entropy = 0.0\nsamples = 4\nvalue = [0, 0, 4, 0, 0, 0, 0, 0, 0, 0, 0, 0, 0, 0\n0, 0, 0, 0, 0, 0, 0, 0, 0, 0, 0, 0, 0]"] ;
28 -> 32 ;
33 [label="diam_mm <= 0.165\nentropy = 1.406\nsamples = 8\nvalue = [0, 4, 3, 1, 0, 0, 0, 0, 0, 0, 0, 0, 0, 0\n0, 0, 0, 0, 0, 0, 0, 0, 0, 0, 0, 0, 0]"] ;
27 -> 33 ;
34 [label="height_mm <= 0.057\nentropy = 0.985\nsamples = 7\nvalue = [0, 4, 3, 0, 0, 0, 0, 0, 0, 0, 0, 0, 0, 0\n0, 0, 0, 0, 0, 0, 0, 0, 0, 0, 0, 0, 0]"] ;
33 -> 34 ;
35 [label="diam_mm <= 0.157\nentropy = 0.722\nsamples = 5\nvalue = [0, 4, 1, 0, 0, 0, 0, 0, 0, 0, 0, 0, 0, 0\n0, 0, 0, 0, 0, 0, 0, 0, 0, 0, 0, 0, 0]"] ;
34 -> 35 ;
36 [label="entropy = 0.0\nsamples = 4\nvalue = [0, 4, 0, 0, 0, 0, 0, 0, 0, 0, 0, 0, 0, 0\n0, 0, 0, 0, 0, 0, 0, 0, 0, 0, 0, 0, 0]"] ;
35 -> 36 ;
37 [label="entropy = 0.0\nsamples = 1\nvalue = [0, 0, 1, 0, 0, 0, 0, 0, 0, 0, 0, 0, 0, 0\n0, 0, 0, 0, 0, 0, 0, 0, 0, 0, 0, 0, 0]"] ;
35 -> 37 ;
38 [label="entropy = 0.0\nsamples = 2\nvalue = [0, 0, 2, 0, 0, 0, 0, 0, 0, 0, 0, 0, 0, 0\n0, 0, 0, 0, 0, 0, 0, 0, 0, 0, 0, 0, 0]"] ;
34 -> 38 ;
39 [label="entropy = 0.0\nsamples = 1\nvalue = [0, 0, 0, 1, 0, 0, 0, 0, 0, 0, 0, 0, 0, 0\n0, 0, 0, 0, 0, 0, 0, 0, 0, 0, 0, 0, 0]"] ;
33 -> 39 ;
40 [label="diam_mm <= 0.172\nentropy = 1.522\nsamples = 5\nvalue = [0, 0, 2, 1, 0, 2, 0, 0, 0, 0, 0, 0, 0, 0\n0, 0, 0, 0, 0, 0, 0, 0, 0, 0, 0, 0, 0]"] ;
8 -> 40 ;
41 [label="entropy = 0.0\nsamples = 2\nvalue = [0, 0, 0, 0, 0, 2, 0, 0, 0, 0, 0, 0, 0, 0\n0, 0, 0, 0, 0, 0, 0, 0, 0, 0, 0, 0, 0]"] ;
40 -> 41 ;
42 [label="shucked_weight_g <= 0.027\nentropy = 0.918\nsamples = 3\nvalue = [0, 0, 2, 1, 0, 0, 0, 0, 0, 0, 0, 0, 0, 0\n0, 0, 0, 0, 0, 0, 0, 0, 0, 0, 0, 0, 0]"] ;
40 -> 42 ;
43 [label="entropy = 0.0\nsamples = 1\nvalue = [0, 0, 0, 1, 0, 0, 0, 0, 0, 0, 0, 0, 0, 0\n0, 0, 0, 0, 0, 0, 0, 0, 0, 0, 0, 0, 0]"] ;
42 -> 43 ;
44 [label="entropy = 0.0\nsamples = 2\nvalue = [0, 0, 2, 0, 0, 0, 0, 0, 0, 0, 0, 0, 0, 0\n0, 0, 0, 0, 0, 0, 0, 0, 0, 0, 0, 0, 0]"] ;
42 -> 44 ;
45 [label="diam_mm <= 0.178\nentropy = 1.418\nsamples = 21\nvalue = [0, 0, 7, 11, 3, 0, 0, 0, 0, 0, 0, 0, 0, 0\n0, 0, 0, 0, 0, 0, 0, 0, 0, 0, 0, 0, 0]"] ;
3 -> 45 ;
46 [label="viscera_weight_g <= 0.014\nentropy = 1.149\nsamples = 14\nvalue = [0, 0, 2, 10, 2, 0, 0, 0, 0, 0, 0, 0, 0, 0\n0, 0, 0, 0, 0, 0, 0, 0, 0, 0, 0, 0, 0]"] ;
45 -> 46 ;
47 [label="shell_weight_g <= 0.018\nentropy = 1.557\nsamples = 7\nvalue = [0, 0, 2, 3, 2, 0, 0, 0, 0, 0, 0, 0, 0, 0\n0, 0, 0, 0, 0, 0, 0, 0, 0, 0, 0, 0, 0]"] ;
46 -> 47 ;
48 [label="whole_weight_g <= 0.057\nentropy = 1.522\nsamples = 5\nvalue = [0, 0, 2, 1, 2, 0, 0, 0, 0, 0, 0, 0, 0, 0\n0, 0, 0, 0, 0, 0, 0, 0, 0, 0, 0, 0, 0]"] ;
47 -> 48 ;
49 [label="shell_weight_g <= 0.015\nentropy = 0.918\nsamples = 3\nvalue = [0, 0, 2, 0, 1, 0, 0, 0, 0, 0, 0, 0, 0, 0\n0, 0, 0, 0, 0, 0, 0, 0, 0, 0, 0, 0, 0]"] ;
48 -> 49 ;
50 [label="entropy = 0.0\nsamples = 1\nvalue = [0, 0, 0, 0, 1, 0, 0, 0, 0, 0, 0, 0, 0, 0\n0, 0, 0, 0, 0, 0, 0, 0, 0, 0, 0, 0, 0]"] ;
49 -> 50 ;
51 [label="entropy = 0.0\nsamples = 2\nvalue = [0, 0, 2, 0, 0, 0, 0, 0, 0, 0, 0, 0, 0, 0\n0, 0, 0, 0, 0, 0, 0, 0, 0, 0, 0, 0, 0]"] ;
49 -> 51 ;
52 [label="height_mm <= 0.053\nentropy = 1.0\nsamples = 2\nvalue = [0, 0, 0, 1, 1, 0, 0, 0, 0, 0, 0, 0, 0, 0\n0, 0, 0, 0, 0, 0, 0, 0, 0, 0, 0, 0, 0]"] ;
48 -> 52 ;
53 [label="entropy = 0.0\nsamples = 1\nvalue = [0, 0, 0, 1, 0, 0, 0, 0, 0, 0, 0, 0, 0, 0\n0, 0, 0, 0, 0, 0, 0, 0, 0, 0, 0, 0, 0]"] ;
52 -> 53 ;
54 [label="entropy = 0.0\nsamples = 1\nvalue = [0, 0, 0, 0, 1, 0, 0, 0, 0, 0, 0, 0, 0, 0\n0, 0, 0, 0, 0, 0, 0, 0, 0, 0, 0, 0, 0]"] ;
52 -> 54 ;
55 [label="entropy = 0.0\nsamples = 2\nvalue = [0, 0, 0, 2, 0, 0, 0, 0, 0, 0, 0, 0, 0, 0\n0, 0, 0, 0, 0, 0, 0, 0, 0, 0, 0, 0, 0]"] ;
47 -> 55 ;
56 [label="entropy = 0.0\nsamples = 7\nvalue = [0, 0, 0, 7, 0, 0, 0, 0, 0, 0, 0, 0, 0, 0\n0, 0, 0, 0, 0, 0, 0, 0, 0, 0, 0, 0, 0]"] ;
46 -> 56 ;
57 [label="shucked_weight_g <= 0.023\nentropy = 1.149\nsamples = 7\nvalue = [0, 0, 5, 1, 1, 0, 0, 0, 0, 0, 0, 0, 0, 0\n0, 0, 0, 0, 0, 0, 0, 0, 0, 0, 0, 0, 0]"] ;
45 -> 57 ;
58 [label="length_mm <= 0.233\nentropy = 1.0\nsamples = 2\nvalue = [0, 0, 0, 1, 1, 0, 0, 0, 0, 0, 0, 0, 0, 0\n0, 0, 0, 0, 0, 0, 0, 0, 0, 0, 0, 0, 0]"] ;
57 -> 58 ;
59 [label="entropy = 0.0\nsamples = 1\nvalue = [0, 0, 0, 1, 0, 0, 0, 0, 0, 0, 0, 0, 0, 0\n0, 0, 0, 0, 0, 0, 0, 0, 0, 0, 0, 0, 0]"] ;
58 -> 59 ;
60 [label="entropy = 0.0\nsamples = 1\nvalue = [0, 0, 0, 0, 1, 0, 0, 0, 0, 0, 0, 0, 0, 0\n0, 0, 0, 0, 0, 0, 0, 0, 0, 0, 0, 0, 0]"] ;
58 -> 60 ;
61 [label="entropy = 0.0\nsamples = 5\nvalue = [0, 0, 5, 0, 0, 0, 0, 0, 0, 0, 0, 0, 0, 0\n0, 0, 0, 0, 0, 0, 0, 0, 0, 0, 0, 0, 0]"] ;
57 -> 61 ;
62 [label="viscera_weight_g <= 0.032\nentropy = 2.233\nsamples = 148\nvalue = [0, 0, 11, 46, 50, 25, 11, 4, 0, 1, 0, 0, 0\n0, 0, 0, 0, 0, 0, 0, 0, 0, 0, 0, 0, 0, 0]"] ;
2 -> 62 ;
63 [label="viscera_weight_g <= 0.024\nentropy = 2.087\nsamples = 112\nvalue = [0, 0, 10, 38, 38, 15, 11, 0, 0, 0, 0, 0, 0\n0, 0, 0, 0, 0, 0, 0, 0, 0, 0, 0, 0, 0, 0]"] ;
62 -> 63 ;
64 [label="shell_weight_g <= 0.031\nentropy = 1.929\nsamples = 63\nvalue = [0, 0, 5, 31, 15, 7, 5, 0, 0, 0, 0, 0, 0, 0\n0, 0, 0, 0, 0, 0, 0, 0, 0, 0, 0, 0, 0]"] ;
63 -> 64 ;
65 [label="whole_weight_g <= 0.083\nentropy = 1.86\nsamples = 39\nvalue = [0, 0, 4, 17, 13, 4, 1, 0, 0, 0, 0, 0, 0, 0\n0, 0, 0, 0, 0, 0, 0, 0, 0, 0, 0, 0, 0]"] ;
64 -> 65 ;
66 [label="shell_weight_g <= 0.026\nentropy = 1.325\nsamples = 12\nvalue = [0, 0, 0, 6, 5, 0, 1, 0, 0, 0, 0, 0, 0, 0\n0, 0, 0, 0, 0, 0, 0, 0, 0, 0, 0, 0, 0]"] ;
65 -> 66 ;
67 [label="shucked_weight_g <= 0.035\nentropy = 0.918\nsamples = 9\nvalue = [0, 0, 0, 6, 3, 0, 0, 0, 0, 0, 0, 0, 0, 0\n0, 0, 0, 0, 0, 0, 0, 0, 0, 0, 0, 0, 0]"] ;
66 -> 67 ;
68 [label="whole_weight_g <= 0.063\nentropy = 0.811\nsamples = 8\nvalue = [0, 0, 0, 6, 2, 0, 0, 0, 0, 0, 0, 0, 0, 0\n0, 0, 0, 0, 0, 0, 0, 0, 0, 0, 0, 0, 0]"] ;
67 -> 68 ;
69 [label="entropy = 0.0\nsamples = 1\nvalue = [0, 0, 0, 0, 1, 0, 0, 0, 0, 0, 0, 0, 0, 0\n0, 0, 0, 0, 0, 0, 0, 0, 0, 0, 0, 0, 0]"] ;
68 -> 69 ;
70 [label="viscera_weight_g <= 0.018\nentropy = 0.592\nsamples = 7\nvalue = [0, 0, 0, 6, 1, 0, 0, 0, 0, 0, 0, 0, 0, 0\n0, 0, 0, 0, 0, 0, 0, 0, 0, 0, 0, 0, 0]"] ;
68 -> 70 ;
71 [label="entropy = 0.0\nsamples = 5\nvalue = [0, 0, 0, 5, 0, 0, 0, 0, 0, 0, 0, 0, 0, 0\n0, 0, 0, 0, 0, 0, 0, 0, 0, 0, 0, 0, 0]"] ;
70 -> 71 ;
72 [label="whole_weight_g <= 0.078\nentropy = 1.0\nsamples = 2\nvalue = [0, 0, 0, 1, 1, 0, 0, 0, 0, 0, 0, 0, 0, 0\n0, 0, 0, 0, 0, 0, 0, 0, 0, 0, 0, 0, 0]"] ;
70 -> 72 ;
73 [label="entropy = 0.0\nsamples = 1\nvalue = [0, 0, 0, 0, 1, 0, 0, 0, 0, 0, 0, 0, 0, 0\n0, 0, 0, 0, 0, 0, 0, 0, 0, 0, 0, 0, 0]"] ;
72 -> 73 ;
74 [label="entropy = 0.0\nsamples = 1\nvalue = [0, 0, 0, 1, 0, 0, 0, 0, 0, 0, 0, 0, 0, 0\n0, 0, 0, 0, 0, 0, 0, 0, 0, 0, 0, 0, 0]"] ;
72 -> 74 ;
75 [label="entropy = 0.0\nsamples = 1\nvalue = [0, 0, 0, 0, 1, 0, 0, 0, 0, 0, 0, 0, 0, 0\n0, 0, 0, 0, 0, 0, 0, 0, 0, 0, 0, 0, 0]"] ;
67 -> 75 ;
76 [label="shucked_weight_g <= 0.031\nentropy = 0.918\nsamples = 3\nvalue = [0, 0, 0, 0, 2, 0, 1, 0, 0, 0, 0, 0, 0, 0\n0, 0, 0, 0, 0, 0, 0, 0, 0, 0, 0, 0, 0]"] ;
66 -> 76 ;
77 [label="entropy = 0.0\nsamples = 2\nvalue = [0, 0, 0, 0, 2, 0, 0, 0, 0, 0, 0, 0, 0, 0\n0, 0, 0, 0, 0, 0, 0, 0, 0, 0, 0, 0, 0]"] ;
76 -> 77 ;
78 [label="entropy = 0.0\nsamples = 1\nvalue = [0, 0, 0, 0, 0, 0, 1, 0, 0, 0, 0, 0, 0, 0\n0, 0, 0, 0, 0, 0, 0, 0, 0, 0, 0, 0, 0]"] ;
76 -> 78 ;
79 [label="whole_weight_g <= 0.088\nentropy = 1.864\nsamples = 27\nvalue = [0, 0, 4, 11, 8, 4, 0, 0, 0, 0, 0, 0, 0, 0\n0, 0, 0, 0, 0, 0, 0, 0, 0, 0, 0, 0, 0]"] ;
65 -> 79 ;
80 [label="shucked_weight_g <= 0.038\nentropy = 1.459\nsamples = 6\nvalue = [0, 0, 2, 1, 0, 3, 0, 0, 0, 0, 0, 0, 0, 0\n0, 0, 0, 0, 0, 0, 0, 0, 0, 0, 0, 0, 0]"] ;
79 -> 80 ;
81 [label="whole_weight_g <= 0.087\nentropy = 0.811\nsamples = 4\nvalue = [0, 0, 1, 0, 0, 3, 0, 0, 0, 0, 0, 0, 0, 0\n0, 0, 0, 0, 0, 0, 0, 0, 0, 0, 0, 0, 0]"] ;
80 -> 81 ;
82 [label="entropy = 0.0\nsamples = 3\nvalue = [0, 0, 0, 0, 0, 3, 0, 0, 0, 0, 0, 0, 0, 0\n0, 0, 0, 0, 0, 0, 0, 0, 0, 0, 0, 0, 0]"] ;
81 -> 82 ;
83 [label="entropy = 0.0\nsamples = 1\nvalue = [0, 0, 1, 0, 0, 0, 0, 0, 0, 0, 0, 0, 0, 0\n0, 0, 0, 0, 0, 0, 0, 0, 0, 0, 0, 0, 0]"] ;
81 -> 83 ;
84 [label="shucked_weight_g <= 0.041\nentropy = 1.0\nsamples = 2\nvalue = [0, 0, 1, 1, 0, 0, 0, 0, 0, 0, 0, 0, 0, 0\n0, 0, 0, 0, 0, 0, 0, 0, 0, 0, 0, 0, 0]"] ;
80 -> 84 ;
85 [label="entropy = 0.0\nsamples = 1\nvalue = [0, 0, 0, 1, 0, 0, 0, 0, 0, 0, 0, 0, 0, 0\n0, 0, 0, 0, 0, 0, 0, 0, 0, 0, 0, 0, 0]"] ;
84 -> 85 ;
86 [label="entropy = 0.0\nsamples = 1\nvalue = [0, 0, 1, 0, 0, 0, 0, 0, 0, 0, 0, 0, 0, 0\n0, 0, 0, 0, 0, 0, 0, 0, 0, 0, 0, 0, 0]"] ;
84 -> 86 ;
87 [label="length_mm <= 0.282\nentropy = 1.572\nsamples = 21\nvalue = [0, 0, 2, 10, 8, 1, 0, 0, 0, 0, 0, 0, 0, 0\n0, 0, 0, 0, 0, 0, 0, 0, 0, 0, 0, 0, 0]"] ;
79 -> 87 ;
88 [label="height_mm <= 0.067\nentropy = 1.592\nsamples = 16\nvalue = [0, 0, 2, 9, 4, 1, 0, 0, 0, 0, 0, 0, 0, 0\n0, 0, 0, 0, 0, 0, 0, 0, 0, 0, 0, 0, 0]"] ;
87 -> 88 ;
89 [label="height_mm <= 0.057\nentropy = 1.061\nsamples = 8\nvalue = [0, 0, 1, 6, 0, 1, 0, 0, 0, 0, 0, 0, 0, 0\n0, 0, 0, 0, 0, 0, 0, 0, 0, 0, 0, 0, 0]"] ;
88 -> 89 ;
90 [label="entropy = 0.0\nsamples = 1\nvalue = [0, 0, 1, 0, 0, 0, 0, 0, 0, 0, 0, 0, 0, 0\n0, 0, 0, 0, 0, 0, 0, 0, 0, 0, 0, 0, 0]"] ;
89 -> 90 ;
91 [label="shucked_weight_g <= 0.046\nentropy = 0.592\nsamples = 7\nvalue = [0, 0, 0, 6, 0, 1, 0, 0, 0, 0, 0, 0, 0, 0\n0, 0, 0, 0, 0, 0, 0, 0, 0, 0, 0, 0, 0]"] ;
89 -> 91 ;
92 [label="entropy = 0.0\nsamples = 5\nvalue = [0, 0, 0, 5, 0, 0, 0, 0, 0, 0, 0, 0, 0, 0\n0, 0, 0, 0, 0, 0, 0, 0, 0, 0, 0, 0, 0]"] ;
91 -> 92 ;
93 [label="shell_weight_g <= 0.029\nentropy = 1.0\nsamples = 2\nvalue = [0, 0, 0, 1, 0, 1, 0, 0, 0, 0, 0, 0, 0, 0\n0, 0, 0, 0, 0, 0, 0, 0, 0, 0, 0, 0, 0]"] ;
91 -> 93 ;
94 [label="entropy = 0.0\nsamples = 1\nvalue = [0, 0, 0, 1, 0, 0, 0, 0, 0, 0, 0, 0, 0, 0\n0, 0, 0, 0, 0, 0, 0, 0, 0, 0, 0, 0, 0]"] ;
93 -> 94 ;
95 [label="entropy = 0.0\nsamples = 1\nvalue = [0, 0, 0, 0, 0, 1, 0, 0, 0, 0, 0, 0, 0, 0\n0, 0, 0, 0, 0, 0, 0, 0, 0, 0, 0, 0, 0]"] ;
93 -> 95 ;
96 [label="viscera_weight_g <= 0.021\nentropy = 1.406\nsamples = 8\nvalue = [0, 0, 1, 3, 4, 0, 0, 0, 0, 0, 0, 0, 0, 0\n0, 0, 0, 0, 0, 0, 0, 0, 0, 0, 0, 0, 0]"] ;
88 -> 96 ;
97 [label="shucked_weight_g <= 0.04\nentropy = 0.811\nsamples = 4\nvalue = [0, 0, 1, 0, 3, 0, 0, 0, 0, 0, 0, 0, 0, 0\n0, 0, 0, 0, 0, 0, 0, 0, 0, 0, 0, 0, 0]"] ;
96 -> 97 ;
98 [label="entropy = 0.0\nsamples = 3\nvalue = [0, 0, 0, 0, 3, 0, 0, 0, 0, 0, 0, 0, 0, 0\n0, 0, 0, 0, 0, 0, 0, 0, 0, 0, 0, 0, 0]"] ;
97 -> 98 ;
99 [label="entropy = 0.0\nsamples = 1\nvalue = [0, 0, 1, 0, 0, 0, 0, 0, 0, 0, 0, 0, 0, 0\n0, 0, 0, 0, 0, 0, 0, 0, 0, 0, 0, 0, 0]"] ;
97 -> 99 ;
100 [label="height_mm <= 0.075\nentropy = 0.811\nsamples = 4\nvalue = [0, 0, 0, 3, 1, 0, 0, 0, 0, 0, 0, 0, 0, 0\n0, 0, 0, 0, 0, 0, 0, 0, 0, 0, 0, 0, 0]"] ;
96 -> 100 ;
101 [label="entropy = 0.0\nsamples = 1\nvalue = [0, 0, 0, 0, 1, 0, 0, 0, 0, 0, 0, 0, 0, 0\n0, 0, 0, 0, 0, 0, 0, 0, 0, 0, 0, 0, 0]"] ;
100 -> 101 ;
102 [label="entropy = 0.0\nsamples = 3\nvalue = [0, 0, 0, 3, 0, 0, 0, 0, 0, 0, 0, 0, 0, 0\n0, 0, 0, 0, 0, 0, 0, 0, 0, 0, 0, 0, 0]"] ;
100 -> 102 ;
103 [label="viscera_weight_g <= 0.021\nentropy = 0.722\nsamples = 5\nvalue = [0, 0, 0, 1, 4, 0, 0, 0, 0, 0, 0, 0, 0, 0\n0, 0, 0, 0, 0, 0, 0, 0, 0, 0, 0, 0, 0]"] ;
87 -> 103 ;
104 [label="entropy = 0.0\nsamples = 1\nvalue = [0, 0, 0, 1, 0, 0, 0, 0, 0, 0, 0, 0, 0, 0\n0, 0, 0, 0, 0, 0, 0, 0, 0, 0, 0, 0, 0]"] ;
103 -> 104 ;
105 [label="entropy = 0.0\nsamples = 4\nvalue = [0, 0, 0, 0, 4, 0, 0, 0, 0, 0, 0, 0, 0, 0\n0, 0, 0, 0, 0, 0, 0, 0, 0, 0, 0, 0, 0]"] ;
103 -> 105 ;
106 [label="shell_weight_g <= 0.04\nentropy = 1.749\nsamples = 24\nvalue = [0, 0, 1, 14, 2, 3, 4, 0, 0, 0, 0, 0, 0, 0\n0, 0, 0, 0, 0, 0, 0, 0, 0, 0, 0, 0, 0]"] ;
64 -> 106 ;
107 [label="shucked_weight_g <= 0.04\nentropy = 1.247\nsamples = 21\nvalue = [0, 0, 0, 14, 0, 3, 4, 0, 0, 0, 0, 0, 0, 0\n0, 0, 0, 0, 0, 0, 0, 0, 0, 0, 0, 0, 0]"] ;
106 -> 107 ;
108 [label="whole_weight_g <= 0.096\nentropy = 0.971\nsamples = 5\nvalue = [0, 0, 0, 2, 0, 0, 3, 0, 0, 0, 0, 0, 0, 0\n0, 0, 0, 0, 0, 0, 0, 0, 0, 0, 0, 0, 0]"] ;
107 -> 108 ;
109 [label="entropy = 0.0\nsamples = 2\nvalue = [0, 0, 0, 2, 0, 0, 0, 0, 0, 0, 0, 0, 0, 0\n0, 0, 0, 0, 0, 0, 0, 0, 0, 0, 0, 0, 0]"] ;
108 -> 109 ;
110 [label="entropy = 0.0\nsamples = 3\nvalue = [0, 0, 0, 0, 0, 0, 3, 0, 0, 0, 0, 0, 0, 0\n0, 0, 0, 0, 0, 0, 0, 0, 0, 0, 0, 0, 0]"] ;
108 -> 110 ;
111 [label="viscera_weight_g <= 0.019\nentropy = 1.014\nsamples = 16\nvalue = [0, 0, 0, 12, 0, 3, 1, 0, 0, 0, 0, 0, 0, 0\n0, 0, 0, 0, 0, 0, 0, 0, 0, 0, 0, 0, 0]"] ;
107 -> 111 ;
112 [label="length_mm <= 0.278\nentropy = 1.449\nsamples = 7\nvalue = [0, 0, 0, 3, 0, 3, 1, 0, 0, 0, 0, 0, 0, 0\n0, 0, 0, 0, 0, 0, 0, 0, 0, 0, 0, 0, 0]"] ;
111 -> 112 ;
113 [label="shucked_weight_g <= 0.046\nentropy = 0.918\nsamples = 3\nvalue = [0, 0, 0, 0, 0, 2, 1, 0, 0, 0, 0, 0, 0, 0\n0, 0, 0, 0, 0, 0, 0, 0, 0, 0, 0, 0, 0]"] ;
112 -> 113 ;
114 [label="entropy = 0.0\nsamples = 1\nvalue = [0, 0, 0, 0, 0, 0, 1, 0, 0, 0, 0, 0, 0, 0\n0, 0, 0, 0, 0, 0, 0, 0, 0, 0, 0, 0, 0]"] ;
113 -> 114 ;
115 [label="entropy = 0.0\nsamples = 2\nvalue = [0, 0, 0, 0, 0, 2, 0, 0, 0, 0, 0, 0, 0, 0\n0, 0, 0, 0, 0, 0, 0, 0, 0, 0, 0, 0, 0]"] ;
113 -> 115 ;
116 [label="diam_mm <= 0.22\nentropy = 0.811\nsamples = 4\nvalue = [0, 0, 0, 3, 0, 1, 0, 0, 0, 0, 0, 0, 0, 0\n0, 0, 0, 0, 0, 0, 0, 0, 0, 0, 0, 0, 0]"] ;
112 -> 116 ;
117 [label="entropy = 0.0\nsamples = 3\nvalue = [0, 0, 0, 3, 0, 0, 0, 0, 0, 0, 0, 0, 0, 0\n0, 0, 0, 0, 0, 0, 0, 0, 0, 0, 0, 0, 0]"] ;
116 -> 117 ;
118 [label="entropy = 0.0\nsamples = 1\nvalue = [0, 0, 0, 0, 0, 1, 0, 0, 0, 0, 0, 0, 0, 0\n0, 0, 0, 0, 0, 0, 0, 0, 0, 0, 0, 0, 0]"] ;
116 -> 118 ;
119 [label="entropy = 0.0\nsamples = 9\nvalue = [0, 0, 0, 9, 0, 0, 0, 0, 0, 0, 0, 0, 0, 0\n0, 0, 0, 0, 0, 0, 0, 0, 0, 0, 0, 0, 0]"] ;
111 -> 119 ;
120 [label="shell_weight_g <= 0.042\nentropy = 0.918\nsamples = 3\nvalue = [0, 0, 1, 0, 2, 0, 0, 0, 0, 0, 0, 0, 0, 0\n0, 0, 0, 0, 0, 0, 0, 0, 0, 0, 0, 0, 0]"] ;
106 -> 120 ;
121 [label="entropy = 0.0\nsamples = 2\nvalue = [0, 0, 0, 0, 2, 0, 0, 0, 0, 0, 0, 0, 0, 0\n0, 0, 0, 0, 0, 0, 0, 0, 0, 0, 0, 0, 0]"] ;
120 -> 121 ;
122 [label="entropy = 0.0\nsamples = 1\nvalue = [0, 0, 1, 0, 0, 0, 0, 0, 0, 0, 0, 0, 0, 0\n0, 0, 0, 0, 0, 0, 0, 0, 0, 0, 0, 0, 0]"] ;
120 -> 122 ;
123 [label="shucked_weight_g <= 0.044\nentropy = 2.047\nsamples = 49\nvalue = [0, 0, 5, 7, 23, 8, 6, 0, 0, 0, 0, 0, 0, 0\n0, 0, 0, 0, 0, 0, 0, 0, 0, 0, 0, 0, 0]"] ;
63 -> 123 ;
124 [label="length_mm <= 0.292\nentropy = 1.846\nsamples = 10\nvalue = [0, 0, 0, 1, 3, 2, 4, 0, 0, 0, 0, 0, 0, 0\n0, 0, 0, 0, 0, 0, 0, 0, 0, 0, 0, 0, 0]"] ;
123 -> 124 ;
125 [label="shell_weight_g <= 0.032\nentropy = 1.459\nsamples = 6\nvalue = [0, 0, 0, 1, 3, 2, 0, 0, 0, 0, 0, 0, 0, 0\n0, 0, 0, 0, 0, 0, 0, 0, 0, 0, 0, 0, 0]"] ;
124 -> 125 ;
126 [label="entropy = 0.0\nsamples = 3\nvalue = [0, 0, 0, 0, 3, 0, 0, 0, 0, 0, 0, 0, 0, 0\n0, 0, 0, 0, 0, 0, 0, 0, 0, 0, 0, 0, 0]"] ;
125 -> 126 ;
127 [label="whole_weight_g <= 0.107\nentropy = 0.918\nsamples = 3\nvalue = [0, 0, 0, 1, 0, 2, 0, 0, 0, 0, 0, 0, 0, 0\n0, 0, 0, 0, 0, 0, 0, 0, 0, 0, 0, 0, 0]"] ;
125 -> 127 ;
128 [label="entropy = 0.0\nsamples = 1\nvalue = [0, 0, 0, 1, 0, 0, 0, 0, 0, 0, 0, 0, 0, 0\n0, 0, 0, 0, 0, 0, 0, 0, 0, 0, 0, 0, 0]"] ;
127 -> 128 ;
129 [label="entropy = 0.0\nsamples = 2\nvalue = [0, 0, 0, 0, 0, 2, 0, 0, 0, 0, 0, 0, 0, 0\n0, 0, 0, 0, 0, 0, 0, 0, 0, 0, 0, 0, 0]"] ;
127 -> 129 ;
130 [label="entropy = 0.0\nsamples = 4\nvalue = [0, 0, 0, 0, 0, 0, 4, 0, 0, 0, 0, 0, 0, 0\n0, 0, 0, 0, 0, 0, 0, 0, 0, 0, 0, 0, 0]"] ;
124 -> 130 ;
131 [label="shucked_weight_g <= 0.051\nentropy = 1.925\nsamples = 39\nvalue = [0, 0, 5, 6, 20, 6, 2, 0, 0, 0, 0, 0, 0, 0\n0, 0, 0, 0, 0, 0, 0, 0, 0, 0, 0, 0, 0]"] ;
123 -> 131 ;
132 [label="diam_mm <= 0.197\nentropy = 1.555\nsamples = 12\nvalue = [0, 0, 4, 0, 5, 3, 0, 0, 0, 0, 0, 0, 0, 0\n0, 0, 0, 0, 0, 0, 0, 0, 0, 0, 0, 0, 0]"] ;
131 -> 132 ;
133 [label="entropy = 0.0\nsamples = 2\nvalue = [0, 0, 2, 0, 0, 0, 0, 0, 0, 0, 0, 0, 0, 0\n0, 0, 0, 0, 0, 0, 0, 0, 0, 0, 0, 0, 0]"] ;
132 -> 133 ;
134 [label="shell_weight_g <= 0.04\nentropy = 1.485\nsamples = 10\nvalue = [0, 0, 2, 0, 5, 3, 0, 0, 0, 0, 0, 0, 0, 0\n0, 0, 0, 0, 0, 0, 0, 0, 0, 0, 0, 0, 0]"] ;
132 -> 134 ;
135 [label="viscera_weight_g <= 0.029\nentropy = 0.954\nsamples = 8\nvalue = [0, 0, 0, 0, 5, 3, 0, 0, 0, 0, 0, 0, 0, 0\n0, 0, 0, 0, 0, 0, 0, 0, 0, 0, 0, 0, 0]"] ;
134 -> 135 ;
136 [label="height_mm <= 0.06\nentropy = 0.65\nsamples = 6\nvalue = [0, 0, 0, 0, 5, 1, 0, 0, 0, 0, 0, 0, 0, 0\n0, 0, 0, 0, 0, 0, 0, 0, 0, 0, 0, 0, 0]"] ;
135 -> 136 ;
137 [label="entropy = 0.0\nsamples = 1\nvalue = [0, 0, 0, 0, 0, 1, 0, 0, 0, 0, 0, 0, 0, 0\n0, 0, 0, 0, 0, 0, 0, 0, 0, 0, 0, 0, 0]"] ;
136 -> 137 ;
138 [label="entropy = 0.0\nsamples = 5\nvalue = [0, 0, 0, 0, 5, 0, 0, 0, 0, 0, 0, 0, 0, 0\n0, 0, 0, 0, 0, 0, 0, 0, 0, 0, 0, 0, 0]"] ;
136 -> 138 ;
139 [label="entropy = 0.0\nsamples = 2\nvalue = [0, 0, 0, 0, 0, 2, 0, 0, 0, 0, 0, 0, 0, 0\n0, 0, 0, 0, 0, 0, 0, 0, 0, 0, 0, 0, 0]"] ;
135 -> 139 ;
140 [label="entropy = 0.0\nsamples = 2\nvalue = [0, 0, 2, 0, 0, 0, 0, 0, 0, 0, 0, 0, 0, 0\n0, 0, 0, 0, 0, 0, 0, 0, 0, 0, 0, 0, 0]"] ;
134 -> 140 ;
141 [label="whole_weight_g <= 0.119\nentropy = 1.76\nsamples = 27\nvalue = [0, 0, 1, 6, 15, 3, 2, 0, 0, 0, 0, 0, 0, 0\n0, 0, 0, 0, 0, 0, 0, 0, 0, 0, 0, 0, 0]"] ;
131 -> 141 ;
142 [label="whole_weight_g <= 0.117\nentropy = 1.0\nsamples = 2\nvalue = [0, 0, 1, 1, 0, 0, 0, 0, 0, 0, 0, 0, 0, 0\n0, 0, 0, 0, 0, 0, 0, 0, 0, 0, 0, 0, 0]"] ;
141 -> 142 ;
143 [label="entropy = 0.0\nsamples = 1\nvalue = [0, 0, 0, 1, 0, 0, 0, 0, 0, 0, 0, 0, 0, 0\n0, 0, 0, 0, 0, 0, 0, 0, 0, 0, 0, 0, 0]"] ;
142 -> 143 ;
144 [label="entropy = 0.0\nsamples = 1\nvalue = [0, 0, 1, 0, 0, 0, 0, 0, 0, 0, 0, 0, 0, 0\n0, 0, 0, 0, 0, 0, 0, 0, 0, 0, 0, 0, 0]"] ;
142 -> 144 ;
145 [label="viscera_weight_g <= 0.031\nentropy = 1.565\nsamples = 25\nvalue = [0, 0, 0, 5, 15, 3, 2, 0, 0, 0, 0, 0, 0, 0\n0, 0, 0, 0, 0, 0, 0, 0, 0, 0, 0, 0, 0]"] ;
141 -> 145 ;
146 [label="shucked_weight_g <= 0.054\nentropy = 1.384\nsamples = 23\nvalue = [0, 0, 0, 5, 15, 2, 1, 0, 0, 0, 0, 0, 0, 0\n0, 0, 0, 0, 0, 0, 0, 0, 0, 0, 0, 0, 0]"] ;
145 -> 146 ;
147 [label="viscera_weight_g <= 0.03\nentropy = 0.722\nsamples = 5\nvalue = [0, 0, 0, 0, 4, 0, 1, 0, 0, 0, 0, 0, 0, 0\n0, 0, 0, 0, 0, 0, 0, 0, 0, 0, 0, 0, 0]"] ;
146 -> 147 ;
148 [label="entropy = 0.0\nsamples = 4\nvalue = [0, 0, 0, 0, 4, 0, 0, 0, 0, 0, 0, 0, 0, 0\n0, 0, 0, 0, 0, 0, 0, 0, 0, 0, 0, 0, 0]"] ;
147 -> 148 ;
149 [label="entropy = 0.0\nsamples = 1\nvalue = [0, 0, 0, 0, 0, 0, 1, 0, 0, 0, 0, 0, 0, 0\n0, 0, 0, 0, 0, 0, 0, 0, 0, 0, 0, 0, 0]"] ;
147 -> 149 ;
150 [label="shell_weight_g <= 0.037\nentropy = 1.3\nsamples = 18\nvalue = [0, 0, 0, 5, 11, 2, 0, 0, 0, 0, 0, 0, 0, 0\n0, 0, 0, 0, 0, 0, 0, 0, 0, 0, 0, 0, 0]"] ;
146 -> 150 ;
151 [label="length_mm <= 0.308\nentropy = 1.459\nsamples = 6\nvalue = [0, 0, 0, 3, 1, 2, 0, 0, 0, 0, 0, 0, 0, 0\n0, 0, 0, 0, 0, 0, 0, 0, 0, 0, 0, 0, 0]"] ;
150 -> 151 ;
152 [label="shucked_weight_g <= 0.058\nentropy = 0.811\nsamples = 4\nvalue = [0, 0, 0, 3, 1, 0, 0, 0, 0, 0, 0, 0, 0, 0\n0, 0, 0, 0, 0, 0, 0, 0, 0, 0, 0, 0, 0]"] ;
151 -> 152 ;
153 [label="entropy = 0.0\nsamples = 1\nvalue = [0, 0, 0, 0, 1, 0, 0, 0, 0, 0, 0, 0, 0, 0\n0, 0, 0, 0, 0, 0, 0, 0, 0, 0, 0, 0, 0]"] ;
152 -> 153 ;
154 [label="entropy = 0.0\nsamples = 3\nvalue = [0, 0, 0, 3, 0, 0, 0, 0, 0, 0, 0, 0, 0, 0\n0, 0, 0, 0, 0, 0, 0, 0, 0, 0, 0, 0, 0]"] ;
152 -> 154 ;
155 [label="entropy = 0.0\nsamples = 2\nvalue = [0, 0, 0, 0, 0, 2, 0, 0, 0, 0, 0, 0, 0, 0\n0, 0, 0, 0, 0, 0, 0, 0, 0, 0, 0, 0, 0]"] ;
151 -> 155 ;
156 [label="height_mm <= 0.088\nentropy = 0.65\nsamples = 12\nvalue = [0, 0, 0, 2, 10, 0, 0, 0, 0, 0, 0, 0, 0, 0\n0, 0, 0, 0, 0, 0, 0, 0, 0, 0, 0, 0, 0]"] ;
150 -> 156 ;
157 [label="shucked_weight_g <= 0.055\nentropy = 0.439\nsamples = 11\nvalue = [0, 0, 0, 1, 10, 0, 0, 0, 0, 0, 0, 0, 0, 0\n0, 0, 0, 0, 0, 0, 0, 0, 0, 0, 0, 0, 0]"] ;
156 -> 157 ;
158 [label="entropy = 0.0\nsamples = 1\nvalue = [0, 0, 0, 1, 0, 0, 0, 0, 0, 0, 0, 0, 0, 0\n0, 0, 0, 0, 0, 0, 0, 0, 0, 0, 0, 0, 0]"] ;
157 -> 158 ;
159 [label="entropy = 0.0\nsamples = 10\nvalue = [0, 0, 0, 0, 10, 0, 0, 0, 0, 0, 0, 0, 0, 0\n0, 0, 0, 0, 0, 0, 0, 0, 0, 0, 0, 0, 0]"] ;
157 -> 159 ;
160 [label="entropy = 0.0\nsamples = 1\nvalue = [0, 0, 0, 1, 0, 0, 0, 0, 0, 0, 0, 0, 0, 0\n0, 0, 0, 0, 0, 0, 0, 0, 0, 0, 0, 0, 0]"] ;
156 -> 160 ;
161 [label="length_mm <= 0.312\nentropy = 1.0\nsamples = 2\nvalue = [0, 0, 0, 0, 0, 1, 1, 0, 0, 0, 0, 0, 0, 0\n0, 0, 0, 0, 0, 0, 0, 0, 0, 0, 0, 0, 0]"] ;
145 -> 161 ;
162 [label="entropy = 0.0\nsamples = 1\nvalue = [0, 0, 0, 0, 0, 1, 0, 0, 0, 0, 0, 0, 0, 0\n0, 0, 0, 0, 0, 0, 0, 0, 0, 0, 0, 0, 0]"] ;
161 -> 162 ;
163 [label="entropy = 0.0\nsamples = 1\nvalue = [0, 0, 0, 0, 0, 0, 1, 0, 0, 0, 0, 0, 0, 0\n0, 0, 0, 0, 0, 0, 0, 0, 0, 0, 0, 0, 0]"] ;
161 -> 163 ;
164 [label="viscera_weight_g <= 0.041\nentropy = 2.163\nsamples = 36\nvalue = [0, 0, 1, 8, 12, 10, 0, 4, 0, 1, 0, 0, 0, 0\n0, 0, 0, 0, 0, 0, 0, 0, 0, 0, 0, 0, 0]"] ;
62 -> 164 ;
165 [label="whole_weight_g <= 0.134\nentropy = 2.044\nsamples = 27\nvalue = [0, 0, 1, 2, 10, 10, 0, 3, 0, 1, 0, 0, 0, 0\n0, 0, 0, 0, 0, 0, 0, 0, 0, 0, 0, 0, 0]"] ;
164 -> 165 ;
166 [label="shucked_weight_g <= 0.044\nentropy = 1.792\nsamples = 6\nvalue = [0, 0, 0, 0, 1, 1, 0, 3, 0, 1, 0, 0, 0, 0\n0, 0, 0, 0, 0, 0, 0, 0, 0, 0, 0, 0, 0]"] ;
165 -> 166 ;
167 [label="viscera_weight_g <= 0.036\nentropy = 1.0\nsamples = 2\nvalue = [0, 0, 0, 0, 0, 1, 0, 0, 0, 1, 0, 0, 0, 0\n0, 0, 0, 0, 0, 0, 0, 0, 0, 0, 0, 0, 0]"] ;
166 -> 167 ;
168 [label="entropy = 0.0\nsamples = 1\nvalue = [0, 0, 0, 0, 0, 0, 0, 0, 0, 1, 0, 0, 0, 0\n0, 0, 0, 0, 0, 0, 0, 0, 0, 0, 0, 0, 0]"] ;
167 -> 168 ;
169 [label="entropy = 0.0\nsamples = 1\nvalue = [0, 0, 0, 0, 0, 1, 0, 0, 0, 0, 0, 0, 0, 0\n0, 0, 0, 0, 0, 0, 0, 0, 0, 0, 0, 0, 0]"] ;
167 -> 169 ;
170 [label="height_mm <= 0.082\nentropy = 0.811\nsamples = 4\nvalue = [0, 0, 0, 0, 1, 0, 0, 3, 0, 0, 0, 0, 0, 0\n0, 0, 0, 0, 0, 0, 0, 0, 0, 0, 0, 0, 0]"] ;
166 -> 170 ;
171 [label="entropy = 0.0\nsamples = 3\nvalue = [0, 0, 0, 0, 0, 0, 0, 3, 0, 0, 0, 0, 0, 0\n0, 0, 0, 0, 0, 0, 0, 0, 0, 0, 0, 0, 0]"] ;
170 -> 171 ;
172 [label="entropy = 0.0\nsamples = 1\nvalue = [0, 0, 0, 0, 1, 0, 0, 0, 0, 0, 0, 0, 0, 0\n0, 0, 0, 0, 0, 0, 0, 0, 0, 0, 0, 0, 0]"] ;
170 -> 172 ;
173 [label="whole_weight_g <= 0.172\nentropy = 1.58\nsamples = 21\nvalue = [0, 0, 1, 2, 9, 9, 0, 0, 0, 0, 0, 0, 0, 0\n0, 0, 0, 0, 0, 0, 0, 0, 0, 0, 0, 0, 0]"] ;
165 -> 173 ;
174 [label="shucked_weight_g <= 0.06\nentropy = 1.609\nsamples = 17\nvalue = [0, 0, 1, 2, 9, 5, 0, 0, 0, 0, 0, 0, 0, 0\n0, 0, 0, 0, 0, 0, 0, 0, 0, 0, 0, 0, 0]"] ;
173 -> 174 ;
175 [label="shell_weight_g <= 0.043\nentropy = 1.379\nsamples = 7\nvalue = [0, 0, 1, 0, 2, 4, 0, 0, 0, 0, 0, 0, 0, 0\n0, 0, 0, 0, 0, 0, 0, 0, 0, 0, 0, 0, 0]"] ;
174 -> 175 ;
176 [label="entropy = 0.0\nsamples = 2\nvalue = [0, 0, 0, 0, 2, 0, 0, 0, 0, 0, 0, 0, 0, 0\n0, 0, 0, 0, 0, 0, 0, 0, 0, 0, 0, 0, 0]"] ;
175 -> 176 ;
177 [label="is_male <= 0.5\nentropy = 0.722\nsamples = 5\nvalue = [0, 0, 1, 0, 0, 4, 0, 0, 0, 0, 0, 0, 0, 0\n0, 0, 0, 0, 0, 0, 0, 0, 0, 0, 0, 0, 0]"] ;
175 -> 177 ;
178 [label="entropy = 0.0\nsamples = 4\nvalue = [0, 0, 0, 0, 0, 4, 0, 0, 0, 0, 0, 0, 0, 0\n0, 0, 0, 0, 0, 0, 0, 0, 0, 0, 0, 0, 0]"] ;
177 -> 178 ;
179 [label="entropy = 0.0\nsamples = 1\nvalue = [0, 0, 1, 0, 0, 0, 0, 0, 0, 0, 0, 0, 0, 0\n0, 0, 0, 0, 0, 0, 0, 0, 0, 0, 0, 0, 0]"] ;
177 -> 179 ;
180 [label="viscera_weight_g <= 0.037\nentropy = 1.157\nsamples = 10\nvalue = [0, 0, 0, 2, 7, 1, 0, 0, 0, 0, 0, 0, 0, 0\n0, 0, 0, 0, 0, 0, 0, 0, 0, 0, 0, 0, 0]"] ;
174 -> 180 ;
181 [label="length_mm <= 0.27\nentropy = 0.863\nsamples = 7\nvalue = [0, 0, 0, 2, 5, 0, 0, 0, 0, 0, 0, 0, 0, 0\n0, 0, 0, 0, 0, 0, 0, 0, 0, 0, 0, 0, 0]"] ;
180 -> 181 ;
182 [label="entropy = 0.0\nsamples = 1\nvalue = [0, 0, 0, 1, 0, 0, 0, 0, 0, 0, 0, 0, 0, 0\n0, 0, 0, 0, 0, 0, 0, 0, 0, 0, 0, 0, 0]"] ;
181 -> 182 ;
183 [label="shucked_weight_g <= 0.061\nentropy = 0.65\nsamples = 6\nvalue = [0, 0, 0, 1, 5, 0, 0, 0, 0, 0, 0, 0, 0, 0\n0, 0, 0, 0, 0, 0, 0, 0, 0, 0, 0, 0, 0]"] ;
181 -> 183 ;
184 [label="entropy = 0.0\nsamples = 1\nvalue = [0, 0, 0, 1, 0, 0, 0, 0, 0, 0, 0, 0, 0, 0\n0, 0, 0, 0, 0, 0, 0, 0, 0, 0, 0, 0, 0]"] ;
183 -> 184 ;
185 [label="entropy = 0.0\nsamples = 5\nvalue = [0, 0, 0, 0, 5, 0, 0, 0, 0, 0, 0, 0, 0, 0\n0, 0, 0, 0, 0, 0, 0, 0, 0, 0, 0, 0, 0]"] ;
183 -> 185 ;
186 [label="length_mm <= 0.308\nentropy = 0.918\nsamples = 3\nvalue = [0, 0, 0, 0, 2, 1, 0, 0, 0, 0, 0, 0, 0, 0\n0, 0, 0, 0, 0, 0, 0, 0, 0, 0, 0, 0, 0]"] ;
180 -> 186 ;
187 [label="entropy = 0.0\nsamples = 1\nvalue = [0, 0, 0, 0, 0, 1, 0, 0, 0, 0, 0, 0, 0, 0\n0, 0, 0, 0, 0, 0, 0, 0, 0, 0, 0, 0, 0]"] ;
186 -> 187 ;
188 [label="entropy = 0.0\nsamples = 2\nvalue = [0, 0, 0, 0, 2, 0, 0, 0, 0, 0, 0, 0, 0, 0\n0, 0, 0, 0, 0, 0, 0, 0, 0, 0, 0, 0, 0]"] ;
186 -> 188 ;
189 [label="entropy = 0.0\nsamples = 4\nvalue = [0, 0, 0, 0, 0, 4, 0, 0, 0, 0, 0, 0, 0, 0\n0, 0, 0, 0, 0, 0, 0, 0, 0, 0, 0, 0, 0]"] ;
173 -> 189 ;
190 [label="viscera_weight_g <= 0.055\nentropy = 1.224\nsamples = 9\nvalue = [0, 0, 0, 6, 2, 0, 0, 1, 0, 0, 0, 0, 0, 0\n0, 0, 0, 0, 0, 0, 0, 0, 0, 0, 0, 0, 0]"] ;
164 -> 190 ;
191 [label="entropy = 0.0\nsamples = 6\nvalue = [0, 0, 0, 6, 0, 0, 0, 0, 0, 0, 0, 0, 0, 0\n0, 0, 0, 0, 0, 0, 0, 0, 0, 0, 0, 0, 0]"] ;
190 -> 191 ;
192 [label="shell_weight_g <= 0.044\nentropy = 0.918\nsamples = 3\nvalue = [0, 0, 0, 0, 2, 0, 0, 1, 0, 0, 0, 0, 0, 0\n0, 0, 0, 0, 0, 0, 0, 0, 0, 0, 0, 0, 0]"] ;
190 -> 192 ;
193 [label="entropy = 0.0\nsamples = 2\nvalue = [0, 0, 0, 0, 2, 0, 0, 0, 0, 0, 0, 0, 0, 0\n0, 0, 0, 0, 0, 0, 0, 0, 0, 0, 0, 0, 0]"] ;
192 -> 193 ;
194 [label="entropy = 0.0\nsamples = 1\nvalue = [0, 0, 0, 0, 0, 0, 0, 1, 0, 0, 0, 0, 0, 0\n0, 0, 0, 0, 0, 0, 0, 0, 0, 0, 0, 0, 0]"] ;
192 -> 194 ;
195 [label="shell_weight_g <= 0.119\nentropy = 2.735\nsamples = 768\nvalue = [0, 0, 1, 18, 141, 215, 182, 89, 54, 25, 18, 13\n4, 3, 4, 0, 1, 0, 0, 0, 0, 0, 0, 0, 0, 0\n0]"] ;
1 -> 195 ;
196 [label="is_male <= 0.5\nentropy = 2.605\nsamples = 500\nvalue = [0, 0, 1, 18, 128, 156, 87, 49, 28, 16, 8, 4, 3\n2, 0, 0, 0, 0, 0, 0, 0, 0, 0, 0, 0, 0, 0]"] ;
195 -> 196 ;
197 [label="shell_weight_g <= 0.072\nentropy = 2.432\nsamples = 405\nvalue = [0, 0, 1, 18, 119, 135, 71, 25, 19, 8, 4, 3, 2\n0, 0, 0, 0, 0, 0, 0, 0, 0, 0, 0, 0, 0, 0]"] ;
196 -> 197 ;
198 [label="shucked_weight_g <= 0.075\nentropy = 2.171\nsamples = 131\nvalue = [0, 0, 1, 12, 51, 41, 18, 4, 2, 1, 0, 1, 0, 0\n0, 0, 0, 0, 0, 0, 0, 0, 0, 0, 0, 0, 0]"] ;
197 -> 198 ;
199 [label="viscera_weight_g <= 0.034\nentropy = 2.539\nsamples = 29\nvalue = [0, 0, 0, 2, 8, 7, 5, 4, 2, 0, 0, 1, 0, 0\n0, 0, 0, 0, 0, 0, 0, 0, 0, 0, 0, 0, 0]"] ;
198 -> 199 ;
200 [label="shell_weight_g <= 0.052\nentropy = 2.197\nsamples = 9\nvalue = [0, 0, 0, 2, 3, 1, 2, 0, 0, 0, 0, 1, 0, 0\n0, 0, 0, 0, 0, 0, 0, 0, 0, 0, 0, 0, 0]"] ;
199 -> 200 ;
201 [label="viscera_weight_g <= 0.027\nentropy = 1.792\nsamples = 6\nvalue = [0, 0, 0, 1, 3, 1, 0, 0, 0, 0, 0, 1, 0, 0\n0, 0, 0, 0, 0, 0, 0, 0, 0, 0, 0, 0, 0]"] ;
200 -> 201 ;
202 [label="entropy = 0.0\nsamples = 1\nvalue = [0, 0, 0, 1, 0, 0, 0, 0, 0, 0, 0, 0, 0, 0\n0, 0, 0, 0, 0, 0, 0, 0, 0, 0, 0, 0, 0]"] ;
201 -> 202 ;
203 [label="shucked_weight_g <= 0.057\nentropy = 1.371\nsamples = 5\nvalue = [0, 0, 0, 0, 3, 1, 0, 0, 0, 0, 0, 1, 0, 0\n0, 0, 0, 0, 0, 0, 0, 0, 0, 0, 0, 0, 0]"] ;
201 -> 203 ;
204 [label="entropy = 0.0\nsamples = 1\nvalue = [0, 0, 0, 0, 0, 1, 0, 0, 0, 0, 0, 0, 0, 0\n0, 0, 0, 0, 0, 0, 0, 0, 0, 0, 0, 0, 0]"] ;
203 -> 204 ;
205 [label="height_mm <= 0.078\nentropy = 0.811\nsamples = 4\nvalue = [0, 0, 0, 0, 3, 0, 0, 0, 0, 0, 0, 1, 0, 0\n0, 0, 0, 0, 0, 0, 0, 0, 0, 0, 0, 0, 0]"] ;
203 -> 205 ;
206 [label="entropy = 0.0\nsamples = 3\nvalue = [0, 0, 0, 0, 3, 0, 0, 0, 0, 0, 0, 0, 0, 0\n0, 0, 0, 0, 0, 0, 0, 0, 0, 0, 0, 0, 0]"] ;
205 -> 206 ;
207 [label="entropy = 0.0\nsamples = 1\nvalue = [0, 0, 0, 0, 0, 0, 0, 0, 0, 0, 0, 1, 0, 0\n0, 0, 0, 0, 0, 0, 0, 0, 0, 0, 0, 0, 0]"] ;
205 -> 207 ;
208 [label="shell_weight_g <= 0.058\nentropy = 0.918\nsamples = 3\nvalue = [0, 0, 0, 1, 0, 0, 2, 0, 0, 0, 0, 0, 0, 0\n0, 0, 0, 0, 0, 0, 0, 0, 0, 0, 0, 0, 0]"] ;
200 -> 208 ;
209 [label="entropy = 0.0\nsamples = 2\nvalue = [0, 0, 0, 0, 0, 0, 2, 0, 0, 0, 0, 0, 0, 0\n0, 0, 0, 0, 0, 0, 0, 0, 0, 0, 0, 0, 0]"] ;
208 -> 209 ;
210 [label="entropy = 0.0\nsamples = 1\nvalue = [0, 0, 0, 1, 0, 0, 0, 0, 0, 0, 0, 0, 0, 0\n0, 0, 0, 0, 0, 0, 0, 0, 0, 0, 0, 0, 0]"] ;
208 -> 210 ;
211 [label="length_mm <= 0.347\nentropy = 2.228\nsamples = 20\nvalue = [0, 0, 0, 0, 5, 6, 3, 4, 2, 0, 0, 0, 0, 0\n0, 0, 0, 0, 0, 0, 0, 0, 0, 0, 0, 0, 0]"] ;
199 -> 211 ;
212 [label="whole_weight_g <= 0.167\nentropy = 1.918\nsamples = 12\nvalue = [0, 0, 0, 0, 4, 2, 2, 4, 0, 0, 0, 0, 0, 0\n0, 0, 0, 0, 0, 0, 0, 0, 0, 0, 0, 0, 0]"] ;
211 -> 212 ;
213 [label="viscera_weight_g <= 0.037\nentropy = 0.918\nsamples = 3\nvalue = [0, 0, 0, 0, 0, 0, 2, 1, 0, 0, 0, 0, 0, 0\n0, 0, 0, 0, 0, 0, 0, 0, 0, 0, 0, 0, 0]"] ;
212 -> 213 ;
214 [label="entropy = 0.0\nsamples = 1\nvalue = [0, 0, 0, 0, 0, 0, 0, 1, 0, 0, 0, 0, 0, 0\n0, 0, 0, 0, 0, 0, 0, 0, 0, 0, 0, 0, 0]"] ;
213 -> 214 ;
215 [label="entropy = 0.0\nsamples = 2\nvalue = [0, 0, 0, 0, 0, 0, 2, 0, 0, 0, 0, 0, 0, 0\n0, 0, 0, 0, 0, 0, 0, 0, 0, 0, 0, 0, 0]"] ;
213 -> 215 ;
216 [label="height_mm <= 0.093\nentropy = 1.53\nsamples = 9\nvalue = [0, 0, 0, 0, 4, 2, 0, 3, 0, 0, 0, 0, 0, 0\n0, 0, 0, 0, 0, 0, 0, 0, 0, 0, 0, 0, 0]"] ;
212 -> 216 ;
217 [label="viscera_weight_g <= 0.04\nentropy = 1.379\nsamples = 7\nvalue = [0, 0, 0, 0, 4, 2, 0, 1, 0, 0, 0, 0, 0, 0\n0, 0, 0, 0, 0, 0, 0, 0, 0, 0, 0, 0, 0]"] ;
216 -> 217 ;
218 [label="height_mm <= 0.088\nentropy = 0.918\nsamples = 3\nvalue = [0, 0, 0, 0, 1, 2, 0, 0, 0, 0, 0, 0, 0, 0\n0, 0, 0, 0, 0, 0, 0, 0, 0, 0, 0, 0, 0]"] ;
217 -> 218 ;
219 [label="entropy = 0.0\nsamples = 2\nvalue = [0, 0, 0, 0, 0, 2, 0, 0, 0, 0, 0, 0, 0, 0\n0, 0, 0, 0, 0, 0, 0, 0, 0, 0, 0, 0, 0]"] ;
218 -> 219 ;
220 [label="entropy = 0.0\nsamples = 1\nvalue = [0, 0, 0, 0, 1, 0, 0, 0, 0, 0, 0, 0, 0, 0\n0, 0, 0, 0, 0, 0, 0, 0, 0, 0, 0, 0, 0]"] ;
218 -> 220 ;
221 [label="height_mm <= 0.082\nentropy = 0.811\nsamples = 4\nvalue = [0, 0, 0, 0, 3, 0, 0, 1, 0, 0, 0, 0, 0, 0\n0, 0, 0, 0, 0, 0, 0, 0, 0, 0, 0, 0, 0]"] ;
217 -> 221 ;
222 [label="entropy = 0.0\nsamples = 3\nvalue = [0, 0, 0, 0, 3, 0, 0, 0, 0, 0, 0, 0, 0, 0\n0, 0, 0, 0, 0, 0, 0, 0, 0, 0, 0, 0, 0]"] ;
221 -> 222 ;
223 [label="entropy = 0.0\nsamples = 1\nvalue = [0, 0, 0, 0, 0, 0, 0, 1, 0, 0, 0, 0, 0, 0\n0, 0, 0, 0, 0, 0, 0, 0, 0, 0, 0, 0, 0]"] ;
221 -> 223 ;
224 [label="entropy = 0.0\nsamples = 2\nvalue = [0, 0, 0, 0, 0, 0, 0, 2, 0, 0, 0, 0, 0, 0\n0, 0, 0, 0, 0, 0, 0, 0, 0, 0, 0, 0, 0]"] ;
216 -> 224 ;
225 [label="viscera_weight_g <= 0.047\nentropy = 1.75\nsamples = 8\nvalue = [0, 0, 0, 0, 1, 4, 1, 0, 2, 0, 0, 0, 0, 0\n0, 0, 0, 0, 0, 0, 0, 0, 0, 0, 0, 0, 0]"] ;
211 -> 225 ;
226 [label="height_mm <= 0.088\nentropy = 0.918\nsamples = 6\nvalue = [0, 0, 0, 0, 0, 4, 0, 0, 2, 0, 0, 0, 0, 0\n0, 0, 0, 0, 0, 0, 0, 0, 0, 0, 0, 0, 0]"] ;
225 -> 226 ;
227 [label="diam_mm <= 0.247\nentropy = 0.918\nsamples = 3\nvalue = [0, 0, 0, 0, 0, 1, 0, 0, 2, 0, 0, 0, 0, 0\n0, 0, 0, 0, 0, 0, 0, 0, 0, 0, 0, 0, 0]"] ;
226 -> 227 ;
228 [label="entropy = 0.0\nsamples = 1\nvalue = [0, 0, 0, 0, 0, 1, 0, 0, 0, 0, 0, 0, 0, 0\n0, 0, 0, 0, 0, 0, 0, 0, 0, 0, 0, 0, 0]"] ;
227 -> 228 ;
229 [label="entropy = 0.0\nsamples = 2\nvalue = [0, 0, 0, 0, 0, 0, 0, 0, 2, 0, 0, 0, 0, 0\n0, 0, 0, 0, 0, 0, 0, 0, 0, 0, 0, 0, 0]"] ;
227 -> 229 ;
230 [label="entropy = 0.0\nsamples = 3\nvalue = [0, 0, 0, 0, 0, 3, 0, 0, 0, 0, 0, 0, 0, 0\n0, 0, 0, 0, 0, 0, 0, 0, 0, 0, 0, 0, 0]"] ;
226 -> 230 ;
231 [label="shell_weight_g <= 0.058\nentropy = 1.0\nsamples = 2\nvalue = [0, 0, 0, 0, 1, 0, 1, 0, 0, 0, 0, 0, 0, 0\n0, 0, 0, 0, 0, 0, 0, 0, 0, 0, 0, 0, 0]"] ;
225 -> 231 ;
232 [label="entropy = 0.0\nsamples = 1\nvalue = [0, 0, 0, 0, 1, 0, 0, 0, 0, 0, 0, 0, 0, 0\n0, 0, 0, 0, 0, 0, 0, 0, 0, 0, 0, 0, 0]"] ;
231 -> 232 ;
233 [label="entropy = 0.0\nsamples = 1\nvalue = [0, 0, 0, 0, 0, 0, 1, 0, 0, 0, 0, 0, 0, 0\n0, 0, 0, 0, 0, 0, 0, 0, 0, 0, 0, 0, 0]"] ;
231 -> 233 ;
234 [label="viscera_weight_g <= 0.033\nentropy = 1.892\nsamples = 102\nvalue = [0, 0, 1, 10, 43, 34, 13, 0, 0, 1, 0, 0, 0, 0\n0, 0, 0, 0, 0, 0, 0, 0, 0, 0, 0, 0, 0]"] ;
198 -> 234 ;
235 [label="shucked_weight_g <= 0.079\nentropy = 1.061\nsamples = 8\nvalue = [0, 0, 0, 0, 6, 0, 1, 0, 0, 1, 0, 0, 0, 0\n0, 0, 0, 0, 0, 0, 0, 0, 0, 0, 0, 0, 0]"] ;
234 -> 235 ;
236 [label="entropy = 0.0\nsamples = 1\nvalue = [0, 0, 0, 0, 0, 0, 0, 0, 0, 1, 0, 0, 0, 0\n0, 0, 0, 0, 0, 0, 0, 0, 0, 0, 0, 0, 0]"] ;
235 -> 236 ;
237 [label="height_mm <= 0.088\nentropy = 0.592\nsamples = 7\nvalue = [0, 0, 0, 0, 6, 0, 1, 0, 0, 0, 0, 0, 0, 0\n0, 0, 0, 0, 0, 0, 0, 0, 0, 0, 0, 0, 0]"] ;
235 -> 237 ;
238 [label="entropy = 0.0\nsamples = 5\nvalue = [0, 0, 0, 0, 5, 0, 0, 0, 0, 0, 0, 0, 0, 0\n0, 0, 0, 0, 0, 0, 0, 0, 0, 0, 0, 0, 0]"] ;
237 -> 238 ;
239 [label="diam_mm <= 0.267\nentropy = 1.0\nsamples = 2\nvalue = [0, 0, 0, 0, 1, 0, 1, 0, 0, 0, 0, 0, 0, 0\n0, 0, 0, 0, 0, 0, 0, 0, 0, 0, 0, 0, 0]"] ;
237 -> 239 ;
240 [label="entropy = 0.0\nsamples = 1\nvalue = [0, 0, 0, 0, 0, 0, 1, 0, 0, 0, 0, 0, 0, 0\n0, 0, 0, 0, 0, 0, 0, 0, 0, 0, 0, 0, 0]"] ;
239 -> 240 ;
241 [label="entropy = 0.0\nsamples = 1\nvalue = [0, 0, 0, 0, 1, 0, 0, 0, 0, 0, 0, 0, 0, 0\n0, 0, 0, 0, 0, 0, 0, 0, 0, 0, 0, 0, 0]"] ;
239 -> 241 ;
242 [label="diam_mm <= 0.212\nentropy = 1.853\nsamples = 94\nvalue = [0, 0, 1, 10, 37, 34, 12, 0, 0, 0, 0, 0, 0, 0\n0, 0, 0, 0, 0, 0, 0, 0, 0, 0, 0, 0, 0]"] ;
234 -> 242 ;
243 [label="entropy = 0.0\nsamples = 2\nvalue = [0, 0, 0, 2, 0, 0, 0, 0, 0, 0, 0, 0, 0, 0\n0, 0, 0, 0, 0, 0, 0, 0, 0, 0, 0, 0, 0]"] ;
242 -> 243 ;
244 [label="shell_weight_g <= 0.061\nentropy = 1.82\nsamples = 92\nvalue = [0, 0, 1, 8, 37, 34, 12, 0, 0, 0, 0, 0, 0, 0\n0, 0, 0, 0, 0, 0, 0, 0, 0, 0, 0, 0, 0]"] ;
242 -> 244 ;
245 [label="viscera_weight_g <= 0.043\nentropy = 1.754\nsamples = 38\nvalue = [0, 0, 0, 6, 12, 17, 3, 0, 0, 0, 0, 0, 0, 0\n0, 0, 0, 0, 0, 0, 0, 0, 0, 0, 0, 0, 0]"] ;
244 -> 245 ;
246 [label="whole_weight_g <= 0.195\nentropy = 1.41\nsamples = 23\nvalue = [0, 0, 0, 4, 6, 13, 0, 0, 0, 0, 0, 0, 0, 0\n0, 0, 0, 0, 0, 0, 0, 0, 0, 0, 0, 0, 0]"] ;
245 -> 246 ;
247 [label="height_mm <= 0.078\nentropy = 1.485\nsamples = 10\nvalue = [0, 0, 0, 2, 5, 3, 0, 0, 0, 0, 0, 0, 0, 0\n0, 0, 0, 0, 0, 0, 0, 0, 0, 0, 0, 0, 0]"] ;
246 -> 247 ;
248 [label="height_mm <= 0.073\nentropy = 0.971\nsamples = 5\nvalue = [0, 0, 0, 0, 2, 3, 0, 0, 0, 0, 0, 0, 0, 0\n0, 0, 0, 0, 0, 0, 0, 0, 0, 0, 0, 0, 0]"] ;
247 -> 248 ;
249 [label="entropy = 0.0\nsamples = 1\nvalue = [0, 0, 0, 0, 1, 0, 0, 0, 0, 0, 0, 0, 0, 0\n0, 0, 0, 0, 0, 0, 0, 0, 0, 0, 0, 0, 0]"] ;
248 -> 249 ;
250 [label="viscera_weight_g <= 0.035\nentropy = 0.811\nsamples = 4\nvalue = [0, 0, 0, 0, 1, 3, 0, 0, 0, 0, 0, 0, 0, 0\n0, 0, 0, 0, 0, 0, 0, 0, 0, 0, 0, 0, 0]"] ;
248 -> 250 ;
251 [label="entropy = 0.0\nsamples = 1\nvalue = [0, 0, 0, 0, 1, 0, 0, 0, 0, 0, 0, 0, 0, 0\n0, 0, 0, 0, 0, 0, 0, 0, 0, 0, 0, 0, 0]"] ;
250 -> 251 ;
252 [label="entropy = 0.0\nsamples = 3\nvalue = [0, 0, 0, 0, 0, 3, 0, 0, 0, 0, 0, 0, 0, 0\n0, 0, 0, 0, 0, 0, 0, 0, 0, 0, 0, 0, 0]"] ;
250 -> 252 ;
253 [label="shell_weight_g <= 0.056\nentropy = 0.971\nsamples = 5\nvalue = [0, 0, 0, 2, 3, 0, 0, 0, 0, 0, 0, 0, 0, 0\n0, 0, 0, 0, 0, 0, 0, 0, 0, 0, 0, 0, 0]"] ;
247 -> 253 ;
254 [label="height_mm <= 0.093\nentropy = 0.918\nsamples = 3\nvalue = [0, 0, 0, 2, 1, 0, 0, 0, 0, 0, 0, 0, 0, 0\n0, 0, 0, 0, 0, 0, 0, 0, 0, 0, 0, 0, 0]"] ;
253 -> 254 ;
255 [label="entropy = 0.0\nsamples = 2\nvalue = [0, 0, 0, 2, 0, 0, 0, 0, 0, 0, 0, 0, 0, 0\n0, 0, 0, 0, 0, 0, 0, 0, 0, 0, 0, 0, 0]"] ;
254 -> 255 ;
256 [label="entropy = 0.0\nsamples = 1\nvalue = [0, 0, 0, 0, 1, 0, 0, 0, 0, 0, 0, 0, 0, 0\n0, 0, 0, 0, 0, 0, 0, 0, 0, 0, 0, 0, 0]"] ;
254 -> 256 ;
257 [label="entropy = 0.0\nsamples = 2\nvalue = [0, 0, 0, 0, 2, 0, 0, 0, 0, 0, 0, 0, 0, 0\n0, 0, 0, 0, 0, 0, 0, 0, 0, 0, 0, 0, 0]"] ;
253 -> 257 ;
258 [label="shucked_weight_g <= 0.098\nentropy = 0.991\nsamples = 13\nvalue = [0, 0, 0, 2, 1, 10, 0, 0, 0, 0, 0, 0, 0, 0\n0, 0, 0, 0, 0, 0, 0, 0, 0, 0, 0, 0, 0]"] ;
246 -> 258 ;
259 [label="whole_weight_g <= 0.21\nentropy = 0.469\nsamples = 10\nvalue = [0, 0, 0, 1, 0, 9, 0, 0, 0, 0, 0, 0, 0, 0\n0, 0, 0, 0, 0, 0, 0, 0, 0, 0, 0, 0, 0]"] ;
258 -> 259 ;
260 [label="entropy = 0.0\nsamples = 9\nvalue = [0, 0, 0, 0, 0, 9, 0, 0, 0, 0, 0, 0, 0, 0\n0, 0, 0, 0, 0, 0, 0, 0, 0, 0, 0, 0, 0]"] ;
259 -> 260 ;
261 [label="entropy = 0.0\nsamples = 1\nvalue = [0, 0, 0, 1, 0, 0, 0, 0, 0, 0, 0, 0, 0, 0\n0, 0, 0, 0, 0, 0, 0, 0, 0, 0, 0, 0, 0]"] ;
259 -> 261 ;
262 [label="diam_mm <= 0.248\nentropy = 1.585\nsamples = 3\nvalue = [0, 0, 0, 1, 1, 1, 0, 0, 0, 0, 0, 0, 0, 0\n0, 0, 0, 0, 0, 0, 0, 0, 0, 0, 0, 0, 0]"] ;
258 -> 262 ;
263 [label="entropy = 0.0\nsamples = 1\nvalue = [0, 0, 0, 0, 1, 0, 0, 0, 0, 0, 0, 0, 0, 0\n0, 0, 0, 0, 0, 0, 0, 0, 0, 0, 0, 0, 0]"] ;
262 -> 263 ;
264 [label="whole_weight_g <= 0.204\nentropy = 1.0\nsamples = 2\nvalue = [0, 0, 0, 1, 0, 1, 0, 0, 0, 0, 0, 0, 0, 0\n0, 0, 0, 0, 0, 0, 0, 0, 0, 0, 0, 0, 0]"] ;
262 -> 264 ;
265 [label="entropy = 0.0\nsamples = 1\nvalue = [0, 0, 0, 1, 0, 0, 0, 0, 0, 0, 0, 0, 0, 0\n0, 0, 0, 0, 0, 0, 0, 0, 0, 0, 0, 0, 0]"] ;
264 -> 265 ;
266 [label="entropy = 0.0\nsamples = 1\nvalue = [0, 0, 0, 0, 0, 1, 0, 0, 0, 0, 0, 0, 0, 0\n0, 0, 0, 0, 0, 0, 0, 0, 0, 0, 0, 0, 0]"] ;
264 -> 266 ;
267 [label="height_mm <= 0.088\nentropy = 1.889\nsamples = 15\nvalue = [0, 0, 0, 2, 6, 4, 3, 0, 0, 0, 0, 0, 0, 0\n0, 0, 0, 0, 0, 0, 0, 0, 0, 0, 0, 0, 0]"] ;
245 -> 267 ;
268 [label="viscera_weight_g <= 0.048\nentropy = 1.436\nsamples = 9\nvalue = [0, 0, 0, 2, 5, 2, 0, 0, 0, 0, 0, 0, 0, 0\n0, 0, 0, 0, 0, 0, 0, 0, 0, 0, 0, 0, 0]"] ;
267 -> 268 ;
269 [label="whole_weight_g <= 0.195\nentropy = 0.971\nsamples = 5\nvalue = [0, 0, 0, 2, 3, 0, 0, 0, 0, 0, 0, 0, 0, 0\n0, 0, 0, 0, 0, 0, 0, 0, 0, 0, 0, 0, 0]"] ;
268 -> 269 ;
270 [label="entropy = 0.0\nsamples = 2\nvalue = [0, 0, 0, 0, 2, 0, 0, 0, 0, 0, 0, 0, 0, 0\n0, 0, 0, 0, 0, 0, 0, 0, 0, 0, 0, 0, 0]"] ;
269 -> 270 ;
271 [label="shucked_weight_g <= 0.103\nentropy = 0.918\nsamples = 3\nvalue = [0, 0, 0, 2, 1, 0, 0, 0, 0, 0, 0, 0, 0, 0\n0, 0, 0, 0, 0, 0, 0, 0, 0, 0, 0, 0, 0]"] ;
269 -> 271 ;
272 [label="entropy = 0.0\nsamples = 2\nvalue = [0, 0, 0, 2, 0, 0, 0, 0, 0, 0, 0, 0, 0, 0\n0, 0, 0, 0, 0, 0, 0, 0, 0, 0, 0, 0, 0]"] ;
271 -> 272 ;
273 [label="entropy = 0.0\nsamples = 1\nvalue = [0, 0, 0, 0, 1, 0, 0, 0, 0, 0, 0, 0, 0, 0\n0, 0, 0, 0, 0, 0, 0, 0, 0, 0, 0, 0, 0]"] ;
271 -> 273 ;
274 [label="viscera_weight_g <= 0.052\nentropy = 1.0\nsamples = 4\nvalue = [0, 0, 0, 0, 2, 2, 0, 0, 0, 0, 0, 0, 0, 0\n0, 0, 0, 0, 0, 0, 0, 0, 0, 0, 0, 0, 0]"] ;
268 -> 274 ;
275 [label="entropy = 0.0\nsamples = 2\nvalue = [0, 0, 0, 0, 0, 2, 0, 0, 0, 0, 0, 0, 0, 0\n0, 0, 0, 0, 0, 0, 0, 0, 0, 0, 0, 0, 0]"] ;
274 -> 275 ;
276 [label="entropy = 0.0\nsamples = 2\nvalue = [0, 0, 0, 0, 2, 0, 0, 0, 0, 0, 0, 0, 0, 0\n0, 0, 0, 0, 0, 0, 0, 0, 0, 0, 0, 0, 0]"] ;
274 -> 276 ;
277 [label="length_mm <= 0.363\nentropy = 1.459\nsamples = 6\nvalue = [0, 0, 0, 0, 1, 2, 3, 0, 0, 0, 0, 0, 0, 0\n0, 0, 0, 0, 0, 0, 0, 0, 0, 0, 0, 0, 0]"] ;
267 -> 277 ;
278 [label="entropy = 0.0\nsamples = 3\nvalue = [0, 0, 0, 0, 0, 0, 3, 0, 0, 0, 0, 0, 0, 0\n0, 0, 0, 0, 0, 0, 0, 0, 0, 0, 0, 0, 0]"] ;
277 -> 278 ;
279 [label="height_mm <= 0.093\nentropy = 0.918\nsamples = 3\nvalue = [0, 0, 0, 0, 1, 2, 0, 0, 0, 0, 0, 0, 0, 0\n0, 0, 0, 0, 0, 0, 0, 0, 0, 0, 0, 0, 0]"] ;
277 -> 279 ;
280 [label="entropy = 0.0\nsamples = 1\nvalue = [0, 0, 0, 0, 1, 0, 0, 0, 0, 0, 0, 0, 0, 0\n0, 0, 0, 0, 0, 0, 0, 0, 0, 0, 0, 0, 0]"] ;
279 -> 280 ;
281 [label="entropy = 0.0\nsamples = 2\nvalue = [0, 0, 0, 0, 0, 2, 0, 0, 0, 0, 0, 0, 0, 0\n0, 0, 0, 0, 0, 0, 0, 0, 0, 0, 0, 0, 0]"] ;
279 -> 281 ;
282 [label="shucked_weight_g <= 0.089\nentropy = 1.753\nsamples = 54\nvalue = [0, 0, 1, 2, 25, 17, 9, 0, 0, 0, 0, 0, 0, 0\n0, 0, 0, 0, 0, 0, 0, 0, 0, 0, 0, 0, 0]"] ;
244 -> 282 ;
283 [label="whole_weight_g <= 0.188\nentropy = 1.788\nsamples = 14\nvalue = [0, 0, 1, 0, 3, 6, 4, 0, 0, 0, 0, 0, 0, 0\n0, 0, 0, 0, 0, 0, 0, 0, 0, 0, 0, 0, 0]"] ;
282 -> 283 ;
284 [label="entropy = 0.0\nsamples = 2\nvalue = [0, 0, 0, 0, 2, 0, 0, 0, 0, 0, 0, 0, 0, 0\n0, 0, 0, 0, 0, 0, 0, 0, 0, 0, 0, 0, 0]"] ;
283 -> 284 ;
285 [label="shucked_weight_g <= 0.076\nentropy = 1.626\nsamples = 12\nvalue = [0, 0, 1, 0, 1, 6, 4, 0, 0, 0, 0, 0, 0, 0\n0, 0, 0, 0, 0, 0, 0, 0, 0, 0, 0, 0, 0]"] ;
283 -> 285 ;
286 [label="entropy = 0.0\nsamples = 1\nvalue = [0, 0, 0, 0, 1, 0, 0, 0, 0, 0, 0, 0, 0, 0\n0, 0, 0, 0, 0, 0, 0, 0, 0, 0, 0, 0, 0]"] ;
285 -> 286 ;
287 [label="viscera_weight_g <= 0.035\nentropy = 1.322\nsamples = 11\nvalue = [0, 0, 1, 0, 0, 6, 4, 0, 0, 0, 0, 0, 0, 0\n0, 0, 0, 0, 0, 0, 0, 0, 0, 0, 0, 0, 0]"] ;
285 -> 287 ;
288 [label="entropy = 0.0\nsamples = 1\nvalue = [0, 0, 1, 0, 0, 0, 0, 0, 0, 0, 0, 0, 0, 0\n0, 0, 0, 0, 0, 0, 0, 0, 0, 0, 0, 0, 0]"] ;
287 -> 288 ;
289 [label="whole_weight_g <= 0.212\nentropy = 0.971\nsamples = 10\nvalue = [0, 0, 0, 0, 0, 6, 4, 0, 0, 0, 0, 0, 0, 0\n0, 0, 0, 0, 0, 0, 0, 0, 0, 0, 0, 0, 0]"] ;
287 -> 289 ;
290 [label="whole_weight_g <= 0.192\nentropy = 0.985\nsamples = 7\nvalue = [0, 0, 0, 0, 0, 3, 4, 0, 0, 0, 0, 0, 0, 0\n0, 0, 0, 0, 0, 0, 0, 0, 0, 0, 0, 0, 0]"] ;
289 -> 290 ;
291 [label="entropy = 0.0\nsamples = 2\nvalue = [0, 0, 0, 0, 0, 2, 0, 0, 0, 0, 0, 0, 0, 0\n0, 0, 0, 0, 0, 0, 0, 0, 0, 0, 0, 0, 0]"] ;
290 -> 291 ;
292 [label="shucked_weight_g <= 0.078\nentropy = 0.722\nsamples = 5\nvalue = [0, 0, 0, 0, 0, 1, 4, 0, 0, 0, 0, 0, 0, 0\n0, 0, 0, 0, 0, 0, 0, 0, 0, 0, 0, 0, 0]"] ;
290 -> 292 ;
293 [label="entropy = 0.0\nsamples = 1\nvalue = [0, 0, 0, 0, 0, 1, 0, 0, 0, 0, 0, 0, 0, 0\n0, 0, 0, 0, 0, 0, 0, 0, 0, 0, 0, 0, 0]"] ;
292 -> 293 ;
294 [label="entropy = 0.0\nsamples = 4\nvalue = [0, 0, 0, 0, 0, 0, 4, 0, 0, 0, 0, 0, 0, 0\n0, 0, 0, 0, 0, 0, 0, 0, 0, 0, 0, 0, 0]"] ;
292 -> 294 ;
295 [label="entropy = 0.0\nsamples = 3\nvalue = [0, 0, 0, 0, 0, 3, 0, 0, 0, 0, 0, 0, 0, 0\n0, 0, 0, 0, 0, 0, 0, 0, 0, 0, 0, 0, 0]"] ;
289 -> 295 ;
296 [label="shell_weight_g <= 0.067\nentropy = 1.578\nsamples = 40\nvalue = [0, 0, 0, 2, 22, 11, 5, 0, 0, 0, 0, 0, 0, 0\n0, 0, 0, 0, 0, 0, 0, 0, 0, 0, 0, 0, 0]"] ;
282 -> 296 ;
297 [label="whole_weight_g <= 0.219\nentropy = 0.9\nsamples = 19\nvalue = [0, 0, 0, 0, 13, 6, 0, 0, 0, 0, 0, 0, 0, 0\n0, 0, 0, 0, 0, 0, 0, 0, 0, 0, 0, 0, 0]"] ;
296 -> 297 ;
298 [label="entropy = 0.0\nsamples = 8\nvalue = [0, 0, 0, 0, 8, 0, 0, 0, 0, 0, 0, 0, 0, 0\n0, 0, 0, 0, 0, 0, 0, 0, 0, 0, 0, 0, 0]"] ;
297 -> 298 ;
299 [label="length_mm <= 0.368\nentropy = 0.994\nsamples = 11\nvalue = [0, 0, 0, 0, 5, 6, 0, 0, 0, 0, 0, 0, 0, 0\n0, 0, 0, 0, 0, 0, 0, 0, 0, 0, 0, 0, 0]"] ;
297 -> 299 ;
300 [label="entropy = 0.0\nsamples = 5\nvalue = [0, 0, 0, 0, 0, 5, 0, 0, 0, 0, 0, 0, 0, 0\n0, 0, 0, 0, 0, 0, 0, 0, 0, 0, 0, 0, 0]"] ;
299 -> 300 ;
301 [label="shucked_weight_g <= 0.095\nentropy = 0.65\nsamples = 6\nvalue = [0, 0, 0, 0, 5, 1, 0, 0, 0, 0, 0, 0, 0, 0\n0, 0, 0, 0, 0, 0, 0, 0, 0, 0, 0, 0, 0]"] ;
299 -> 301 ;
302 [label="entropy = 0.0\nsamples = 1\nvalue = [0, 0, 0, 0, 0, 1, 0, 0, 0, 0, 0, 0, 0, 0\n0, 0, 0, 0, 0, 0, 0, 0, 0, 0, 0, 0, 0]"] ;
301 -> 302 ;
303 [label="entropy = 0.0\nsamples = 5\nvalue = [0, 0, 0, 0, 5, 0, 0, 0, 0, 0, 0, 0, 0, 0\n0, 0, 0, 0, 0, 0, 0, 0, 0, 0, 0, 0, 0]"] ;
301 -> 303 ;
304 [label="whole_weight_g <= 0.256\nentropy = 1.833\nsamples = 21\nvalue = [0, 0, 0, 2, 9, 5, 5, 0, 0, 0, 0, 0, 0, 0\n0, 0, 0, 0, 0, 0, 0, 0, 0, 0, 0, 0, 0]"] ;
296 -> 304 ;
305 [label="whole_weight_g <= 0.248\nentropy = 1.718\nsamples = 18\nvalue = [0, 0, 0, 2, 9, 2, 5, 0, 0, 0, 0, 0, 0, 0\n0, 0, 0, 0, 0, 0, 0, 0, 0, 0, 0, 0, 0]"] ;
304 -> 305 ;
306 [label="whole_weight_g <= 0.239\nentropy = 1.863\nsamples = 14\nvalue = [0, 0, 0, 2, 5, 2, 5, 0, 0, 0, 0, 0, 0, 0\n0, 0, 0, 0, 0, 0, 0, 0, 0, 0, 0, 0, 0]"] ;
305 -> 306 ;
307 [label="shell_weight_g <= 0.069\nentropy = 1.485\nsamples = 10\nvalue = [0, 0, 0, 0, 5, 2, 3, 0, 0, 0, 0, 0, 0, 0\n0, 0, 0, 0, 0, 0, 0, 0, 0, 0, 0, 0, 0]"] ;
306 -> 307 ;
308 [label="entropy = 0.0\nsamples = 2\nvalue = [0, 0, 0, 0, 0, 0, 2, 0, 0, 0, 0, 0, 0, 0\n0, 0, 0, 0, 0, 0, 0, 0, 0, 0, 0, 0, 0]"] ;
307 -> 308 ;
309 [label="viscera_weight_g <= 0.059\nentropy = 1.299\nsamples = 8\nvalue = [0, 0, 0, 0, 5, 2, 1, 0, 0, 0, 0, 0, 0, 0\n0, 0, 0, 0, 0, 0, 0, 0, 0, 0, 0, 0, 0]"] ;
307 -> 309 ;
310 [label="shucked_weight_g <= 0.117\nentropy = 0.65\nsamples = 6\nvalue = [0, 0, 0, 0, 5, 1, 0, 0, 0, 0, 0, 0, 0, 0\n0, 0, 0, 0, 0, 0, 0, 0, 0, 0, 0, 0, 0]"] ;
309 -> 310 ;
311 [label="entropy = 0.0\nsamples = 5\nvalue = [0, 0, 0, 0, 5, 0, 0, 0, 0, 0, 0, 0, 0, 0\n0, 0, 0, 0, 0, 0, 0, 0, 0, 0, 0, 0, 0]"] ;
310 -> 311 ;
312 [label="entropy = 0.0\nsamples = 1\nvalue = [0, 0, 0, 0, 0, 1, 0, 0, 0, 0, 0, 0, 0, 0\n0, 0, 0, 0, 0, 0, 0, 0, 0, 0, 0, 0, 0]"] ;
310 -> 312 ;
313 [label="shucked_weight_g <= 0.093\nentropy = 1.0\nsamples = 2\nvalue = [0, 0, 0, 0, 0, 1, 1, 0, 0, 0, 0, 0, 0, 0\n0, 0, 0, 0, 0, 0, 0, 0, 0, 0, 0, 0, 0]"] ;
309 -> 313 ;
314 [label="entropy = 0.0\nsamples = 1\nvalue = [0, 0, 0, 0, 0, 0, 1, 0, 0, 0, 0, 0, 0, 0\n0, 0, 0, 0, 0, 0, 0, 0, 0, 0, 0, 0, 0]"] ;
313 -> 314 ;
315 [label="entropy = 0.0\nsamples = 1\nvalue = [0, 0, 0, 0, 0, 1, 0, 0, 0, 0, 0, 0, 0, 0\n0, 0, 0, 0, 0, 0, 0, 0, 0, 0, 0, 0, 0]"] ;
313 -> 315 ;
316 [label="diam_mm <= 0.28\nentropy = 1.0\nsamples = 4\nvalue = [0, 0, 0, 2, 0, 0, 2, 0, 0, 0, 0, 0, 0, 0\n0, 0, 0, 0, 0, 0, 0, 0, 0, 0, 0, 0, 0]"] ;
306 -> 316 ;
317 [label="entropy = 0.0\nsamples = 1\nvalue = [0, 0, 0, 1, 0, 0, 0, 0, 0, 0, 0, 0, 0, 0\n0, 0, 0, 0, 0, 0, 0, 0, 0, 0, 0, 0, 0]"] ;
316 -> 317 ;
318 [label="shucked_weight_g <= 0.122\nentropy = 0.918\nsamples = 3\nvalue = [0, 0, 0, 1, 0, 0, 2, 0, 0, 0, 0, 0, 0, 0\n0, 0, 0, 0, 0, 0, 0, 0, 0, 0, 0, 0, 0]"] ;
316 -> 318 ;
319 [label="entropy = 0.0\nsamples = 2\nvalue = [0, 0, 0, 0, 0, 0, 2, 0, 0, 0, 0, 0, 0, 0\n0, 0, 0, 0, 0, 0, 0, 0, 0, 0, 0, 0, 0]"] ;
318 -> 319 ;
320 [label="entropy = 0.0\nsamples = 1\nvalue = [0, 0, 0, 1, 0, 0, 0, 0, 0, 0, 0, 0, 0, 0\n0, 0, 0, 0, 0, 0, 0, 0, 0, 0, 0, 0, 0]"] ;
318 -> 320 ;
321 [label="entropy = 0.0\nsamples = 4\nvalue = [0, 0, 0, 0, 4, 0, 0, 0, 0, 0, 0, 0, 0, 0\n0, 0, 0, 0, 0, 0, 0, 0, 0, 0, 0, 0, 0]"] ;
305 -> 321 ;
322 [label="entropy = 0.0\nsamples = 3\nvalue = [0, 0, 0, 0, 0, 3, 0, 0, 0, 0, 0, 0, 0, 0\n0, 0, 0, 0, 0, 0, 0, 0, 0, 0, 0, 0, 0]"] ;
304 -> 322 ;
323 [label="shucked_weight_g <= 0.154\nentropy = 2.468\nsamples = 274\nvalue = [0, 0, 0, 6, 68, 94, 53, 21, 17, 7, 4, 2, 2\n0, 0, 0, 0, 0, 0, 0, 0, 0, 0, 0, 0, 0, 0]"] ;
197 -> 323 ;
324 [label="whole_weight_g <= 0.343\nentropy = 2.617\nsamples = 159\nvalue = [0, 0, 0, 4, 32, 48, 34, 14, 17, 4, 3, 2, 1\n0, 0, 0, 0, 0, 0, 0, 0, 0, 0, 0, 0, 0, 0]"] ;
323 -> 324 ;
325 [label="length_mm <= 0.387\nentropy = 2.533\nsamples = 146\nvalue = [0, 0, 0, 4, 32, 46, 32, 10, 15, 2, 2, 2, 1\n0, 0, 0, 0, 0, 0, 0, 0, 0, 0, 0, 0, 0, 0]"] ;
324 -> 325 ;
326 [label="shell_weight_g <= 0.089\nentropy = 2.539\nsamples = 63\nvalue = [0, 0, 0, 0, 14, 18, 9, 7, 11, 1, 2, 0, 1, 0\n0, 0, 0, 0, 0, 0, 0, 0, 0, 0, 0, 0, 0]"] ;
325 -> 326 ;
327 [label="shell_weight_g <= 0.084\nentropy = 2.446\nsamples = 53\nvalue = [0, 0, 0, 0, 14, 13, 7, 7, 10, 1, 1, 0, 0, 0\n0, 0, 0, 0, 0, 0, 0, 0, 0, 0, 0, 0, 0]"] ;
326 -> 327 ;
328 [label="whole_weight_g <= 0.221\nentropy = 2.369\nsamples = 43\nvalue = [0, 0, 0, 0, 9, 13, 7, 7, 6, 0, 1, 0, 0, 0\n0, 0, 0, 0, 0, 0, 0, 0, 0, 0, 0, 0, 0]"] ;
327 -> 328 ;
329 [label="height_mm <= 0.102\nentropy = 1.557\nsamples = 7\nvalue = [0, 0, 0, 0, 2, 0, 0, 2, 3, 0, 0, 0, 0, 0\n0, 0, 0, 0, 0, 0, 0, 0, 0, 0, 0, 0, 0]"] ;
328 -> 329 ;
330 [label="diam_mm <= 0.273\nentropy = 0.971\nsamples = 5\nvalue = [0, 0, 0, 0, 2, 0, 0, 0, 3, 0, 0, 0, 0, 0\n0, 0, 0, 0, 0, 0, 0, 0, 0, 0, 0, 0, 0]"] ;
329 -> 330 ;
331 [label="entropy = 0.0\nsamples = 3\nvalue = [0, 0, 0, 0, 0, 0, 0, 0, 3, 0, 0, 0, 0, 0\n0, 0, 0, 0, 0, 0, 0, 0, 0, 0, 0, 0, 0]"] ;
330 -> 331 ;
332 [label="entropy = 0.0\nsamples = 2\nvalue = [0, 0, 0, 0, 2, 0, 0, 0, 0, 0, 0, 0, 0, 0\n0, 0, 0, 0, 0, 0, 0, 0, 0, 0, 0, 0, 0]"] ;
330 -> 332 ;
333 [label="entropy = 0.0\nsamples = 2\nvalue = [0, 0, 0, 0, 0, 0, 0, 2, 0, 0, 0, 0, 0, 0\n0, 0, 0, 0, 0, 0, 0, 0, 0, 0, 0, 0, 0]"] ;
329 -> 333 ;
334 [label="height_mm <= 0.102\nentropy = 2.287\nsamples = 36\nvalue = [0, 0, 0, 0, 7, 13, 7, 5, 3, 0, 1, 0, 0, 0\n0, 0, 0, 0, 0, 0, 0, 0, 0, 0, 0, 0, 0]"] ;
328 -> 334 ;
335 [label="height_mm <= 0.093\nentropy = 1.957\nsamples = 25\nvalue = [0, 0, 0, 0, 5, 11, 6, 2, 0, 0, 1, 0, 0, 0\n0, 0, 0, 0, 0, 0, 0, 0, 0, 0, 0, 0, 0]"] ;
334 -> 335 ;
336 [label="length_mm <= 0.382\nentropy = 1.241\nsamples = 11\nvalue = [0, 0, 0, 0, 0, 7, 3, 1, 0, 0, 0, 0, 0, 0\n0, 0, 0, 0, 0, 0, 0, 0, 0, 0, 0, 0, 0]"] ;
335 -> 336 ;
337 [label="entropy = 0.0\nsamples = 6\nvalue = [0, 0, 0, 0, 0, 6, 0, 0, 0, 0, 0, 0, 0, 0\n0, 0, 0, 0, 0, 0, 0, 0, 0, 0, 0, 0, 0]"] ;
336 -> 337 ;
338 [label="shell_weight_g <= 0.075\nentropy = 1.371\nsamples = 5\nvalue = [0, 0, 0, 0, 0, 1, 3, 1, 0, 0, 0, 0, 0, 0\n0, 0, 0, 0, 0, 0, 0, 0, 0, 0, 0, 0, 0]"] ;
336 -> 338 ;
339 [label="entropy = 0.0\nsamples = 1\nvalue = [0, 0, 0, 0, 0, 0, 0, 1, 0, 0, 0, 0, 0, 0\n0, 0, 0, 0, 0, 0, 0, 0, 0, 0, 0, 0, 0]"] ;
338 -> 339 ;
340 [label="whole_weight_g <= 0.234\nentropy = 0.811\nsamples = 4\nvalue = [0, 0, 0, 0, 0, 1, 3, 0, 0, 0, 0, 0, 0, 0\n0, 0, 0, 0, 0, 0, 0, 0, 0, 0, 0, 0, 0]"] ;
338 -> 340 ;
341 [label="entropy = 0.0\nsamples = 1\nvalue = [0, 0, 0, 0, 0, 1, 0, 0, 0, 0, 0, 0, 0, 0\n0, 0, 0, 0, 0, 0, 0, 0, 0, 0, 0, 0, 0]"] ;
340 -> 341 ;
342 [label="entropy = 0.0\nsamples = 3\nvalue = [0, 0, 0, 0, 0, 0, 3, 0, 0, 0, 0, 0, 0, 0\n0, 0, 0, 0, 0, 0, 0, 0, 0, 0, 0, 0, 0]"] ;
340 -> 342 ;
343 [label="shucked_weight_g <= 0.114\nentropy = 2.067\nsamples = 14\nvalue = [0, 0, 0, 0, 5, 4, 3, 1, 0, 0, 1, 0, 0, 0\n0, 0, 0, 0, 0, 0, 0, 0, 0, 0, 0, 0, 0]"] ;
335 -> 343 ;
344 [label="shucked_weight_g <= 0.094\nentropy = 1.379\nsamples = 7\nvalue = [0, 0, 0, 0, 4, 0, 2, 1, 0, 0, 0, 0, 0, 0\n0, 0, 0, 0, 0, 0, 0, 0, 0, 0, 0, 0, 0]"] ;
343 -> 344 ;
345 [label="entropy = 0.0\nsamples = 2\nvalue = [0, 0, 0, 0, 0, 0, 2, 0, 0, 0, 0, 0, 0, 0\n0, 0, 0, 0, 0, 0, 0, 0, 0, 0, 0, 0, 0]"] ;
344 -> 345 ;
346 [label="length_mm <= 0.368\nentropy = 0.722\nsamples = 5\nvalue = [0, 0, 0, 0, 4, 0, 0, 1, 0, 0, 0, 0, 0, 0\n0, 0, 0, 0, 0, 0, 0, 0, 0, 0, 0, 0, 0]"] ;
344 -> 346 ;
347 [label="entropy = 0.0\nsamples = 1\nvalue = [0, 0, 0, 0, 0, 0, 0, 1, 0, 0, 0, 0, 0, 0\n0, 0, 0, 0, 0, 0, 0, 0, 0, 0, 0, 0, 0]"] ;
346 -> 347 ;
348 [label="entropy = 0.0\nsamples = 4\nvalue = [0, 0, 0, 0, 4, 0, 0, 0, 0, 0, 0, 0, 0, 0\n0, 0, 0, 0, 0, 0, 0, 0, 0, 0, 0, 0, 0]"] ;
346 -> 348 ;
349 [label="shell_weight_g <= 0.073\nentropy = 1.664\nsamples = 7\nvalue = [0, 0, 0, 0, 1, 4, 1, 0, 0, 0, 1, 0, 0, 0\n0, 0, 0, 0, 0, 0, 0, 0, 0, 0, 0, 0, 0]"] ;
343 -> 349 ;
350 [label="shucked_weight_g <= 0.124\nentropy = 1.0\nsamples = 2\nvalue = [0, 0, 0, 0, 0, 0, 1, 0, 0, 0, 1, 0, 0, 0\n0, 0, 0, 0, 0, 0, 0, 0, 0, 0, 0, 0, 0]"] ;
349 -> 350 ;
351 [label="entropy = 0.0\nsamples = 1\nvalue = [0, 0, 0, 0, 0, 0, 0, 0, 0, 0, 1, 0, 0, 0\n0, 0, 0, 0, 0, 0, 0, 0, 0, 0, 0, 0, 0]"] ;
350 -> 351 ;
352 [label="entropy = 0.0\nsamples = 1\nvalue = [0, 0, 0, 0, 0, 0, 1, 0, 0, 0, 0, 0, 0, 0\n0, 0, 0, 0, 0, 0, 0, 0, 0, 0, 0, 0, 0]"] ;
350 -> 352 ;
353 [label="length_mm <= 0.373\nentropy = 0.722\nsamples = 5\nvalue = [0, 0, 0, 0, 1, 4, 0, 0, 0, 0, 0, 0, 0, 0\n0, 0, 0, 0, 0, 0, 0, 0, 0, 0, 0, 0, 0]"] ;
349 -> 353 ;
354 [label="entropy = 0.0\nsamples = 3\nvalue = [0, 0, 0, 0, 0, 3, 0, 0, 0, 0, 0, 0, 0, 0\n0, 0, 0, 0, 0, 0, 0, 0, 0, 0, 0, 0, 0]"] ;
353 -> 354 ;
355 [label="diam_mm <= 0.295\nentropy = 1.0\nsamples = 2\nvalue = [0, 0, 0, 0, 1, 1, 0, 0, 0, 0, 0, 0, 0, 0\n0, 0, 0, 0, 0, 0, 0, 0, 0, 0, 0, 0, 0]"] ;
353 -> 355 ;
356 [label="entropy = 0.0\nsamples = 1\nvalue = [0, 0, 0, 0, 1, 0, 0, 0, 0, 0, 0, 0, 0, 0\n0, 0, 0, 0, 0, 0, 0, 0, 0, 0, 0, 0, 0]"] ;
355 -> 356 ;
357 [label="entropy = 0.0\nsamples = 1\nvalue = [0, 0, 0, 0, 0, 1, 0, 0, 0, 0, 0, 0, 0, 0\n0, 0, 0, 0, 0, 0, 0, 0, 0, 0, 0, 0, 0]"] ;
355 -> 357 ;
358 [label="shucked_weight_g <= 0.109\nentropy = 2.231\nsamples = 11\nvalue = [0, 0, 0, 0, 2, 2, 1, 3, 3, 0, 0, 0, 0, 0\n0, 0, 0, 0, 0, 0, 0, 0, 0, 0, 0, 0, 0]"] ;
334 -> 358 ;
359 [label="length_mm <= 0.368\nentropy = 0.918\nsamples = 3\nvalue = [0, 0, 0, 0, 0, 2, 0, 0, 1, 0, 0, 0, 0, 0\n0, 0, 0, 0, 0, 0, 0, 0, 0, 0, 0, 0, 0]"] ;
358 -> 359 ;
360 [label="entropy = 0.0\nsamples = 2\nvalue = [0, 0, 0, 0, 0, 2, 0, 0, 0, 0, 0, 0, 0, 0\n0, 0, 0, 0, 0, 0, 0, 0, 0, 0, 0, 0, 0]"] ;
359 -> 360 ;
361 [label="entropy = 0.0\nsamples = 1\nvalue = [0, 0, 0, 0, 0, 0, 0, 0, 1, 0, 0, 0, 0, 0\n0, 0, 0, 0, 0, 0, 0, 0, 0, 0, 0, 0, 0]"] ;
359 -> 361 ;
362 [label="length_mm <= 0.382\nentropy = 1.906\nsamples = 8\nvalue = [0, 0, 0, 0, 2, 0, 1, 3, 2, 0, 0, 0, 0, 0\n0, 0, 0, 0, 0, 0, 0, 0, 0, 0, 0, 0, 0]"] ;
358 -> 362 ;
363 [label="height_mm <= 0.128\nentropy = 1.459\nsamples = 6\nvalue = [0, 0, 0, 0, 2, 0, 1, 3, 0, 0, 0, 0, 0, 0\n0, 0, 0, 0, 0, 0, 0, 0, 0, 0, 0, 0, 0]"] ;
362 -> 363 ;
364 [label="shell_weight_g <= 0.075\nentropy = 0.971\nsamples = 5\nvalue = [0, 0, 0, 0, 2, 0, 0, 3, 0, 0, 0, 0, 0, 0\n0, 0, 0, 0, 0, 0, 0, 0, 0, 0, 0, 0, 0]"] ;
363 -> 364 ;
365 [label="entropy = 0.0\nsamples = 2\nvalue = [0, 0, 0, 0, 0, 0, 0, 2, 0, 0, 0, 0, 0, 0\n0, 0, 0, 0, 0, 0, 0, 0, 0, 0, 0, 0, 0]"] ;
364 -> 365 ;
366 [label="diam_mm <= 0.28\nentropy = 0.918\nsamples = 3\nvalue = [0, 0, 0, 0, 2, 0, 0, 1, 0, 0, 0, 0, 0, 0\n0, 0, 0, 0, 0, 0, 0, 0, 0, 0, 0, 0, 0]"] ;
364 -> 366 ;
367 [label="entropy = 0.0\nsamples = 2\nvalue = [0, 0, 0, 0, 2, 0, 0, 0, 0, 0, 0, 0, 0, 0\n0, 0, 0, 0, 0, 0, 0, 0, 0, 0, 0, 0, 0]"] ;
366 -> 367 ;
368 [label="entropy = 0.0\nsamples = 1\nvalue = [0, 0, 0, 0, 0, 0, 0, 1, 0, 0, 0, 0, 0, 0\n0, 0, 0, 0, 0, 0, 0, 0, 0, 0, 0, 0, 0]"] ;
366 -> 368 ;
369 [label="entropy = 0.0\nsamples = 1\nvalue = [0, 0, 0, 0, 0, 0, 1, 0, 0, 0, 0, 0, 0, 0\n0, 0, 0, 0, 0, 0, 0, 0, 0, 0, 0, 0, 0]"] ;
363 -> 369 ;
370 [label="entropy = 0.0\nsamples = 2\nvalue = [0, 0, 0, 0, 0, 0, 0, 0, 2, 0, 0, 0, 0, 0\n0, 0, 0, 0, 0, 0, 0, 0, 0, 0, 0, 0, 0]"] ;
362 -> 370 ;
371 [label="shucked_weight_g <= 0.1\nentropy = 1.361\nsamples = 10\nvalue = [0, 0, 0, 0, 5, 0, 0, 0, 4, 1, 0, 0, 0, 0\n0, 0, 0, 0, 0, 0, 0, 0, 0, 0, 0, 0, 0]"] ;
327 -> 371 ;
372 [label="length_mm <= 0.358\nentropy = 0.811\nsamples = 4\nvalue = [0, 0, 0, 0, 0, 0, 0, 0, 3, 1, 0, 0, 0, 0\n0, 0, 0, 0, 0, 0, 0, 0, 0, 0, 0, 0, 0]"] ;
371 -> 372 ;
373 [label="entropy = 0.0\nsamples = 1\nvalue = [0, 0, 0, 0, 0, 0, 0, 0, 0, 1, 0, 0, 0, 0\n0, 0, 0, 0, 0, 0, 0, 0, 0, 0, 0, 0, 0]"] ;
372 -> 373 ;
374 [label="entropy = 0.0\nsamples = 3\nvalue = [0, 0, 0, 0, 0, 0, 0, 0, 3, 0, 0, 0, 0, 0\n0, 0, 0, 0, 0, 0, 0, 0, 0, 0, 0, 0, 0]"] ;
372 -> 374 ;
375 [label="whole_weight_g <= 0.254\nentropy = 0.65\nsamples = 6\nvalue = [0, 0, 0, 0, 5, 0, 0, 0, 1, 0, 0, 0, 0, 0\n0, 0, 0, 0, 0, 0, 0, 0, 0, 0, 0, 0, 0]"] ;
371 -> 375 ;
376 [label="diam_mm <= 0.285\nentropy = 1.0\nsamples = 2\nvalue = [0, 0, 0, 0, 1, 0, 0, 0, 1, 0, 0, 0, 0, 0\n0, 0, 0, 0, 0, 0, 0, 0, 0, 0, 0, 0, 0]"] ;
375 -> 376 ;
377 [label="entropy = 0.0\nsamples = 1\nvalue = [0, 0, 0, 0, 1, 0, 0, 0, 0, 0, 0, 0, 0, 0\n0, 0, 0, 0, 0, 0, 0, 0, 0, 0, 0, 0, 0]"] ;
376 -> 377 ;
378 [label="entropy = 0.0\nsamples = 1\nvalue = [0, 0, 0, 0, 0, 0, 0, 0, 1, 0, 0, 0, 0, 0\n0, 0, 0, 0, 0, 0, 0, 0, 0, 0, 0, 0, 0]"] ;
376 -> 378 ;
379 [label="entropy = 0.0\nsamples = 4\nvalue = [0, 0, 0, 0, 4, 0, 0, 0, 0, 0, 0, 0, 0, 0\n0, 0, 0, 0, 0, 0, 0, 0, 0, 0, 0, 0, 0]"] ;
375 -> 379 ;
380 [label="whole_weight_g <= 0.285\nentropy = 1.961\nsamples = 10\nvalue = [0, 0, 0, 0, 0, 5, 2, 0, 1, 0, 1, 0, 1, 0\n0, 0, 0, 0, 0, 0, 0, 0, 0, 0, 0, 0, 0]"] ;
326 -> 380 ;
381 [label="length_mm <= 0.377\nentropy = 1.922\nsamples = 5\nvalue = [0, 0, 0, 0, 0, 1, 2, 0, 0, 0, 1, 0, 1, 0\n0, 0, 0, 0, 0, 0, 0, 0, 0, 0, 0, 0, 0]"] ;
380 -> 381 ;
382 [label="shucked_weight_g <= 0.086\nentropy = 0.918\nsamples = 3\nvalue = [0, 0, 0, 0, 0, 1, 2, 0, 0, 0, 0, 0, 0, 0\n0, 0, 0, 0, 0, 0, 0, 0, 0, 0, 0, 0, 0]"] ;
381 -> 382 ;
383 [label="entropy = 0.0\nsamples = 1\nvalue = [0, 0, 0, 0, 0, 1, 0, 0, 0, 0, 0, 0, 0, 0\n0, 0, 0, 0, 0, 0, 0, 0, 0, 0, 0, 0, 0]"] ;
382 -> 383 ;
384 [label="entropy = 0.0\nsamples = 2\nvalue = [0, 0, 0, 0, 0, 0, 2, 0, 0, 0, 0, 0, 0, 0\n0, 0, 0, 0, 0, 0, 0, 0, 0, 0, 0, 0, 0]"] ;
382 -> 384 ;
385 [label="viscera_weight_g <= 0.058\nentropy = 1.0\nsamples = 2\nvalue = [0, 0, 0, 0, 0, 0, 0, 0, 0, 0, 1, 0, 1, 0\n0, 0, 0, 0, 0, 0, 0, 0, 0, 0, 0, 0, 0]"] ;
381 -> 385 ;
386 [label="entropy = 0.0\nsamples = 1\nvalue = [0, 0, 0, 0, 0, 0, 0, 0, 0, 0, 0, 0, 1, 0\n0, 0, 0, 0, 0, 0, 0, 0, 0, 0, 0, 0, 0]"] ;
385 -> 386 ;
387 [label="entropy = 0.0\nsamples = 1\nvalue = [0, 0, 0, 0, 0, 0, 0, 0, 0, 0, 1, 0, 0, 0\n0, 0, 0, 0, 0, 0, 0, 0, 0, 0, 0, 0, 0]"] ;
385 -> 387 ;
388 [label="diam_mm <= 0.315\nentropy = 0.722\nsamples = 5\nvalue = [0, 0, 0, 0, 0, 4, 0, 0, 1, 0, 0, 0, 0, 0\n0, 0, 0, 0, 0, 0, 0, 0, 0, 0, 0, 0, 0]"] ;
380 -> 388 ;
389 [label="entropy = 0.0\nsamples = 4\nvalue = [0, 0, 0, 0, 0, 4, 0, 0, 0, 0, 0, 0, 0, 0\n0, 0, 0, 0, 0, 0, 0, 0, 0, 0, 0, 0, 0]"] ;
388 -> 389 ;
390 [label="entropy = 0.0\nsamples = 1\nvalue = [0, 0, 0, 0, 0, 0, 0, 0, 1, 0, 0, 0, 0, 0\n0, 0, 0, 0, 0, 0, 0, 0, 0, 0, 0, 0, 0]"] ;
388 -> 390 ;
391 [label="shell_weight_g <= 0.084\nentropy = 2.321\nsamples = 83\nvalue = [0, 0, 0, 4, 18, 28, 23, 3, 4, 1, 0, 2, 0, 0\n0, 0, 0, 0, 0, 0, 0, 0, 0, 0, 0, 0, 0]"] ;
325 -> 391 ;
392 [label="viscera_weight_g <= 0.059\nentropy = 2.077\nsamples = 25\nvalue = [0, 0, 0, 4, 7, 9, 4, 1, 0, 0, 0, 0, 0, 0\n0, 0, 0, 0, 0, 0, 0, 0, 0, 0, 0, 0, 0]"] ;
391 -> 392 ;
393 [label="whole_weight_g <= 0.209\nentropy = 1.406\nsamples = 8\nvalue = [0, 0, 0, 0, 3, 1, 4, 0, 0, 0, 0, 0, 0, 0\n0, 0, 0, 0, 0, 0, 0, 0, 0, 0, 0, 0, 0]"] ;
392 -> 393 ;
394 [label="entropy = 0.0\nsamples = 1\nvalue = [0, 0, 0, 0, 0, 1, 0, 0, 0, 0, 0, 0, 0, 0\n0, 0, 0, 0, 0, 0, 0, 0, 0, 0, 0, 0, 0]"] ;
393 -> 394 ;
395 [label="length_mm <= 0.392\nentropy = 0.985\nsamples = 7\nvalue = [0, 0, 0, 0, 3, 0, 4, 0, 0, 0, 0, 0, 0, 0\n0, 0, 0, 0, 0, 0, 0, 0, 0, 0, 0, 0, 0]"] ;
393 -> 395 ;
396 [label="entropy = 0.0\nsamples = 2\nvalue = [0, 0, 0, 0, 0, 0, 2, 0, 0, 0, 0, 0, 0, 0\n0, 0, 0, 0, 0, 0, 0, 0, 0, 0, 0, 0, 0]"] ;
395 -> 396 ;
397 [label="shucked_weight_g <= 0.13\nentropy = 0.971\nsamples = 5\nvalue = [0, 0, 0, 0, 3, 0, 2, 0, 0, 0, 0, 0, 0, 0\n0, 0, 0, 0, 0, 0, 0, 0, 0, 0, 0, 0, 0]"] ;
395 -> 397 ;
398 [label="entropy = 0.0\nsamples = 3\nvalue = [0, 0, 0, 0, 3, 0, 0, 0, 0, 0, 0, 0, 0, 0\n0, 0, 0, 0, 0, 0, 0, 0, 0, 0, 0, 0, 0]"] ;
397 -> 398 ;
399 [label="entropy = 0.0\nsamples = 2\nvalue = [0, 0, 0, 0, 0, 0, 2, 0, 0, 0, 0, 0, 0, 0\n0, 0, 0, 0, 0, 0, 0, 0, 0, 0, 0, 0, 0]"] ;
397 -> 399 ;
400 [label="whole_weight_g <= 0.285\nentropy = 1.735\nsamples = 17\nvalue = [0, 0, 0, 4, 4, 8, 0, 1, 0, 0, 0, 0, 0, 0\n0, 0, 0, 0, 0, 0, 0, 0, 0, 0, 0, 0, 0]"] ;
392 -> 400 ;
401 [label="shell_weight_g <= 0.077\nentropy = 0.986\nsamples = 9\nvalue = [0, 0, 0, 1, 0, 7, 0, 1, 0, 0, 0, 0, 0, 0\n0, 0, 0, 0, 0, 0, 0, 0, 0, 0, 0, 0, 0]"] ;
400 -> 401 ;
402 [label="entropy = 0.0\nsamples = 1\nvalue = [0, 0, 0, 1, 0, 0, 0, 0, 0, 0, 0, 0, 0, 0\n0, 0, 0, 0, 0, 0, 0, 0, 0, 0, 0, 0, 0]"] ;
401 -> 402 ;
403 [label="diam_mm <= 0.275\nentropy = 0.544\nsamples = 8\nvalue = [0, 0, 0, 0, 0, 7, 0, 1, 0, 0, 0, 0, 0, 0\n0, 0, 0, 0, 0, 0, 0, 0, 0, 0, 0, 0, 0]"] ;
401 -> 403 ;
404 [label="entropy = 0.0\nsamples = 1\nvalue = [0, 0, 0, 0, 0, 0, 0, 1, 0, 0, 0, 0, 0, 0\n0, 0, 0, 0, 0, 0, 0, 0, 0, 0, 0, 0, 0]"] ;
403 -> 404 ;
405 [label="entropy = 0.0\nsamples = 7\nvalue = [0, 0, 0, 0, 0, 7, 0, 0, 0, 0, 0, 0, 0, 0\n0, 0, 0, 0, 0, 0, 0, 0, 0, 0, 0, 0, 0]"] ;
403 -> 405 ;
406 [label="shucked_weight_g <= 0.138\nentropy = 1.406\nsamples = 8\nvalue = [0, 0, 0, 3, 4, 1, 0, 0, 0, 0, 0, 0, 0, 0\n0, 0, 0, 0, 0, 0, 0, 0, 0, 0, 0, 0, 0]"] ;
400 -> 406 ;
407 [label="whole_weight_g <= 0.311\nentropy = 0.811\nsamples = 4\nvalue = [0, 0, 0, 0, 3, 1, 0, 0, 0, 0, 0, 0, 0, 0\n0, 0, 0, 0, 0, 0, 0, 0, 0, 0, 0, 0, 0]"] ;
406 -> 407 ;
408 [label="entropy = 0.0\nsamples = 3\nvalue = [0, 0, 0, 0, 3, 0, 0, 0, 0, 0, 0, 0, 0, 0\n0, 0, 0, 0, 0, 0, 0, 0, 0, 0, 0, 0, 0]"] ;
407 -> 408 ;
409 [label="entropy = 0.0\nsamples = 1\nvalue = [0, 0, 0, 0, 0, 1, 0, 0, 0, 0, 0, 0, 0, 0\n0, 0, 0, 0, 0, 0, 0, 0, 0, 0, 0, 0, 0]"] ;
407 -> 409 ;
410 [label="height_mm <= 0.102\nentropy = 0.811\nsamples = 4\nvalue = [0, 0, 0, 3, 1, 0, 0, 0, 0, 0, 0, 0, 0, 0\n0, 0, 0, 0, 0, 0, 0, 0, 0, 0, 0, 0, 0]"] ;
406 -> 410 ;
411 [label="entropy = 0.0\nsamples = 3\nvalue = [0, 0, 0, 3, 0, 0, 0, 0, 0, 0, 0, 0, 0, 0\n0, 0, 0, 0, 0, 0, 0, 0, 0, 0, 0, 0, 0]"] ;
410 -> 411 ;
412 [label="entropy = 0.0\nsamples = 1\nvalue = [0, 0, 0, 0, 1, 0, 0, 0, 0, 0, 0, 0, 0, 0\n0, 0, 0, 0, 0, 0, 0, 0, 0, 0, 0, 0, 0]"] ;
410 -> 412 ;
413 [label="viscera_weight_g <= 0.064\nentropy = 2.212\nsamples = 58\nvalue = [0, 0, 0, 0, 11, 19, 19, 2, 4, 1, 0, 2, 0, 0\n0, 0, 0, 0, 0, 0, 0, 0, 0, 0, 0, 0, 0]"] ;
391 -> 413 ;
414 [label="viscera_weight_g <= 0.063\nentropy = 2.3\nsamples = 29\nvalue = [0, 0, 0, 0, 3, 7, 12, 1, 3, 1, 0, 2, 0, 0\n0, 0, 0, 0, 0, 0, 0, 0, 0, 0, 0, 0, 0]"] ;
413 -> 414 ;
415 [label="diam_mm <= 0.312\nentropy = 2.017\nsamples = 24\nvalue = [0, 0, 0, 0, 3, 7, 10, 0, 2, 0, 0, 2, 0, 0\n0, 0, 0, 0, 0, 0, 0, 0, 0, 0, 0, 0, 0]"] ;
414 -> 415 ;
416 [label="viscera_weight_g <= 0.057\nentropy = 2.013\nsamples = 15\nvalue = [0, 0, 0, 0, 3, 2, 7, 0, 1, 0, 0, 2, 0, 0\n0, 0, 0, 0, 0, 0, 0, 0, 0, 0, 0, 0, 0]"] ;
415 -> 416 ;
417 [label="viscera_weight_g <= 0.049\nentropy = 1.95\nsamples = 7\nvalue = [0, 0, 0, 0, 2, 2, 2, 0, 1, 0, 0, 0, 0, 0\n0, 0, 0, 0, 0, 0, 0, 0, 0, 0, 0, 0, 0]"] ;
416 -> 417 ;
418 [label="height_mm <= 0.102\nentropy = 0.918\nsamples = 3\nvalue = [0, 0, 0, 0, 0, 0, 2, 0, 1, 0, 0, 0, 0, 0\n0, 0, 0, 0, 0, 0, 0, 0, 0, 0, 0, 0, 0]"] ;
417 -> 418 ;
419 [label="entropy = 0.0\nsamples = 1\nvalue = [0, 0, 0, 0, 0, 0, 0, 0, 1, 0, 0, 0, 0, 0\n0, 0, 0, 0, 0, 0, 0, 0, 0, 0, 0, 0, 0]"] ;
418 -> 419 ;
420 [label="entropy = 0.0\nsamples = 2\nvalue = [0, 0, 0, 0, 0, 0, 2, 0, 0, 0, 0, 0, 0, 0\n0, 0, 0, 0, 0, 0, 0, 0, 0, 0, 0, 0, 0]"] ;
418 -> 420 ;
421 [label="whole_weight_g <= 0.281\nentropy = 1.0\nsamples = 4\nvalue = [0, 0, 0, 0, 2, 2, 0, 0, 0, 0, 0, 0, 0, 0\n0, 0, 0, 0, 0, 0, 0, 0, 0, 0, 0, 0, 0]"] ;
417 -> 421 ;
422 [label="entropy = 0.0\nsamples = 2\nvalue = [0, 0, 0, 0, 2, 0, 0, 0, 0, 0, 0, 0, 0, 0\n0, 0, 0, 0, 0, 0, 0, 0, 0, 0, 0, 0, 0]"] ;
421 -> 422 ;
423 [label="entropy = 0.0\nsamples = 2\nvalue = [0, 0, 0, 0, 0, 2, 0, 0, 0, 0, 0, 0, 0, 0\n0, 0, 0, 0, 0, 0, 0, 0, 0, 0, 0, 0, 0]"] ;
421 -> 423 ;
424 [label="viscera_weight_g <= 0.061\nentropy = 1.299\nsamples = 8\nvalue = [0, 0, 0, 0, 1, 0, 5, 0, 0, 0, 0, 2, 0, 0\n0, 0, 0, 0, 0, 0, 0, 0, 0, 0, 0, 0, 0]"] ;
416 -> 424 ;
425 [label="shucked_weight_g <= 0.111\nentropy = 1.522\nsamples = 5\nvalue = [0, 0, 0, 0, 1, 0, 2, 0, 0, 0, 0, 2, 0, 0\n0, 0, 0, 0, 0, 0, 0, 0, 0, 0, 0, 0, 0]"] ;
424 -> 425 ;
426 [label="entropy = 0.0\nsamples = 1\nvalue = [0, 0, 0, 0, 0, 0, 0, 0, 0, 0, 0, 1, 0, 0\n0, 0, 0, 0, 0, 0, 0, 0, 0, 0, 0, 0, 0]"] ;
425 -> 426 ;
427 [label="shell_weight_g <= 0.095\nentropy = 1.5\nsamples = 4\nvalue = [0, 0, 0, 0, 1, 0, 2, 0, 0, 0, 0, 1, 0, 0\n0, 0, 0, 0, 0, 0, 0, 0, 0, 0, 0, 0, 0]"] ;
425 -> 427 ;
428 [label="whole_weight_g <= 0.295\nentropy = 0.918\nsamples = 3\nvalue = [0, 0, 0, 0, 1, 0, 2, 0, 0, 0, 0, 0, 0, 0\n0, 0, 0, 0, 0, 0, 0, 0, 0, 0, 0, 0, 0]"] ;
427 -> 428 ;
429 [label="entropy = 0.0\nsamples = 1\nvalue = [0, 0, 0, 0, 0, 0, 1, 0, 0, 0, 0, 0, 0, 0\n0, 0, 0, 0, 0, 0, 0, 0, 0, 0, 0, 0, 0]"] ;
428 -> 429 ;
430 [label="shucked_weight_g <= 0.134\nentropy = 1.0\nsamples = 2\nvalue = [0, 0, 0, 0, 1, 0, 1, 0, 0, 0, 0, 0, 0, 0\n0, 0, 0, 0, 0, 0, 0, 0, 0, 0, 0, 0, 0]"] ;
428 -> 430 ;
431 [label="entropy = 0.0\nsamples = 1\nvalue = [0, 0, 0, 0, 1, 0, 0, 0, 0, 0, 0, 0, 0, 0\n0, 0, 0, 0, 0, 0, 0, 0, 0, 0, 0, 0, 0]"] ;
430 -> 431 ;
432 [label="entropy = 0.0\nsamples = 1\nvalue = [0, 0, 0, 0, 0, 0, 1, 0, 0, 0, 0, 0, 0, 0\n0, 0, 0, 0, 0, 0, 0, 0, 0, 0, 0, 0, 0]"] ;
430 -> 432 ;
433 [label="entropy = 0.0\nsamples = 1\nvalue = [0, 0, 0, 0, 0, 0, 0, 0, 0, 0, 0, 1, 0, 0\n0, 0, 0, 0, 0, 0, 0, 0, 0, 0, 0, 0, 0]"] ;
427 -> 433 ;
434 [label="entropy = 0.0\nsamples = 3\nvalue = [0, 0, 0, 0, 0, 0, 3, 0, 0, 0, 0, 0, 0, 0\n0, 0, 0, 0, 0, 0, 0, 0, 0, 0, 0, 0, 0]"] ;
424 -> 434 ;
435 [label="shucked_weight_g <= 0.144\nentropy = 1.352\nsamples = 9\nvalue = [0, 0, 0, 0, 0, 5, 3, 0, 1, 0, 0, 0, 0, 0\n0, 0, 0, 0, 0, 0, 0, 0, 0, 0, 0, 0, 0]"] ;
415 -> 435 ;
436 [label="shell_weight_g <= 0.093\nentropy = 0.65\nsamples = 6\nvalue = [0, 0, 0, 0, 0, 5, 1, 0, 0, 0, 0, 0, 0, 0\n0, 0, 0, 0, 0, 0, 0, 0, 0, 0, 0, 0, 0]"] ;
435 -> 436 ;
437 [label="entropy = 0.0\nsamples = 1\nvalue = [0, 0, 0, 0, 0, 0, 1, 0, 0, 0, 0, 0, 0, 0\n0, 0, 0, 0, 0, 0, 0, 0, 0, 0, 0, 0, 0]"] ;
436 -> 437 ;
438 [label="entropy = 0.0\nsamples = 5\nvalue = [0, 0, 0, 0, 0, 5, 0, 0, 0, 0, 0, 0, 0, 0\n0, 0, 0, 0, 0, 0, 0, 0, 0, 0, 0, 0, 0]"] ;
436 -> 438 ;
439 [label="shucked_weight_g <= 0.152\nentropy = 0.918\nsamples = 3\nvalue = [0, 0, 0, 0, 0, 0, 2, 0, 1, 0, 0, 0, 0, 0\n0, 0, 0, 0, 0, 0, 0, 0, 0, 0, 0, 0, 0]"] ;
435 -> 439 ;
440 [label="entropy = 0.0\nsamples = 2\nvalue = [0, 0, 0, 0, 0, 0, 2, 0, 0, 0, 0, 0, 0, 0\n0, 0, 0, 0, 0, 0, 0, 0, 0, 0, 0, 0, 0]"] ;
439 -> 440 ;
441 [label="entropy = 0.0\nsamples = 1\nvalue = [0, 0, 0, 0, 0, 0, 0, 0, 1, 0, 0, 0, 0, 0\n0, 0, 0, 0, 0, 0, 0, 0, 0, 0, 0, 0, 0]"] ;
439 -> 441 ;
442 [label="length_mm <= 0.41\nentropy = 1.922\nsamples = 5\nvalue = [0, 0, 0, 0, 0, 0, 2, 1, 1, 1, 0, 0, 0, 0\n0, 0, 0, 0, 0, 0, 0, 0, 0, 0, 0, 0, 0]"] ;
414 -> 442 ;
443 [label="length_mm <= 0.395\nentropy = 1.0\nsamples = 2\nvalue = [0, 0, 0, 0, 0, 0, 0, 0, 1, 1, 0, 0, 0, 0\n0, 0, 0, 0, 0, 0, 0, 0, 0, 0, 0, 0, 0]"] ;
442 -> 443 ;
444 [label="entropy = 0.0\nsamples = 1\nvalue = [0, 0, 0, 0, 0, 0, 0, 0, 0, 1, 0, 0, 0, 0\n0, 0, 0, 0, 0, 0, 0, 0, 0, 0, 0, 0, 0]"] ;
443 -> 444 ;
445 [label="entropy = 0.0\nsamples = 1\nvalue = [0, 0, 0, 0, 0, 0, 0, 0, 1, 0, 0, 0, 0, 0\n0, 0, 0, 0, 0, 0, 0, 0, 0, 0, 0, 0, 0]"] ;
443 -> 445 ;
446 [label="diam_mm <= 0.322\nentropy = 0.918\nsamples = 3\nvalue = [0, 0, 0, 0, 0, 0, 2, 1, 0, 0, 0, 0, 0, 0\n0, 0, 0, 0, 0, 0, 0, 0, 0, 0, 0, 0, 0]"] ;
442 -> 446 ;
447 [label="entropy = 0.0\nsamples = 1\nvalue = [0, 0, 0, 0, 0, 0, 0, 1, 0, 0, 0, 0, 0, 0\n0, 0, 0, 0, 0, 0, 0, 0, 0, 0, 0, 0, 0]"] ;
446 -> 447 ;
448 [label="entropy = 0.0\nsamples = 2\nvalue = [0, 0, 0, 0, 0, 0, 2, 0, 0, 0, 0, 0, 0, 0\n0, 0, 0, 0, 0, 0, 0, 0, 0, 0, 0, 0, 0]"] ;
446 -> 448 ;
449 [label="diam_mm <= 0.333\nentropy = 1.869\nsamples = 29\nvalue = [0, 0, 0, 0, 8, 12, 7, 1, 1, 0, 0, 0, 0, 0\n0, 0, 0, 0, 0, 0, 0, 0, 0, 0, 0, 0, 0]"] ;
413 -> 449 ;
450 [label="shucked_weight_g <= 0.097\nentropy = 1.757\nsamples = 25\nvalue = [0, 0, 0, 0, 8, 9, 7, 1, 0, 0, 0, 0, 0, 0\n0, 0, 0, 0, 0, 0, 0, 0, 0, 0, 0, 0, 0]"] ;
449 -> 450 ;
451 [label="entropy = 0.0\nsamples = 1\nvalue = [0, 0, 0, 0, 0, 0, 0, 1, 0, 0, 0, 0, 0, 0\n0, 0, 0, 0, 0, 0, 0, 0, 0, 0, 0, 0, 0]"] ;
450 -> 451 ;
452 [label="shucked_weight_g <= 0.131\nentropy = 1.577\nsamples = 24\nvalue = [0, 0, 0, 0, 8, 9, 7, 0, 0, 0, 0, 0, 0, 0\n0, 0, 0, 0, 0, 0, 0, 0, 0, 0, 0, 0, 0]"] ;
450 -> 452 ;
453 [label="viscera_weight_g <= 0.073\nentropy = 1.384\nsamples = 12\nvalue = [0, 0, 0, 0, 2, 7, 3, 0, 0, 0, 0, 0, 0, 0\n0, 0, 0, 0, 0, 0, 0, 0, 0, 0, 0, 0, 0]"] ;
452 -> 453 ;
454 [label="viscera_weight_g <= 0.069\nentropy = 0.863\nsamples = 7\nvalue = [0, 0, 0, 0, 2, 5, 0, 0, 0, 0, 0, 0, 0, 0\n0, 0, 0, 0, 0, 0, 0, 0, 0, 0, 0, 0, 0]"] ;
453 -> 454 ;
455 [label="shucked_weight_g <= 0.102\nentropy = 0.918\nsamples = 3\nvalue = [0, 0, 0, 0, 2, 1, 0, 0, 0, 0, 0, 0, 0, 0\n0, 0, 0, 0, 0, 0, 0, 0, 0, 0, 0, 0, 0]"] ;
454 -> 455 ;
456 [label="entropy = 0.0\nsamples = 1\nvalue = [0, 0, 0, 0, 0, 1, 0, 0, 0, 0, 0, 0, 0, 0\n0, 0, 0, 0, 0, 0, 0, 0, 0, 0, 0, 0, 0]"] ;
455 -> 456 ;
457 [label="entropy = 0.0\nsamples = 2\nvalue = [0, 0, 0, 0, 2, 0, 0, 0, 0, 0, 0, 0, 0, 0\n0, 0, 0, 0, 0, 0, 0, 0, 0, 0, 0, 0, 0]"] ;
455 -> 457 ;
458 [label="entropy = 0.0\nsamples = 4\nvalue = [0, 0, 0, 0, 0, 4, 0, 0, 0, 0, 0, 0, 0, 0\n0, 0, 0, 0, 0, 0, 0, 0, 0, 0, 0, 0, 0]"] ;
454 -> 458 ;
459 [label="whole_weight_g <= 0.306\nentropy = 0.971\nsamples = 5\nvalue = [0, 0, 0, 0, 0, 2, 3, 0, 0, 0, 0, 0, 0, 0\n0, 0, 0, 0, 0, 0, 0, 0, 0, 0, 0, 0, 0]"] ;
453 -> 459 ;
460 [label="height_mm <= 0.108\nentropy = 0.918\nsamples = 3\nvalue = [0, 0, 0, 0, 0, 2, 1, 0, 0, 0, 0, 0, 0, 0\n0, 0, 0, 0, 0, 0, 0, 0, 0, 0, 0, 0, 0]"] ;
459 -> 460 ;
461 [label="entropy = 0.0\nsamples = 1\nvalue = [0, 0, 0, 0, 0, 0, 1, 0, 0, 0, 0, 0, 0, 0\n0, 0, 0, 0, 0, 0, 0, 0, 0, 0, 0, 0, 0]"] ;
460 -> 461 ;
462 [label="entropy = 0.0\nsamples = 2\nvalue = [0, 0, 0, 0, 0, 2, 0, 0, 0, 0, 0, 0, 0, 0\n0, 0, 0, 0, 0, 0, 0, 0, 0, 0, 0, 0, 0]"] ;
460 -> 462 ;
463 [label="entropy = 0.0\nsamples = 2\nvalue = [0, 0, 0, 0, 0, 0, 2, 0, 0, 0, 0, 0, 0, 0\n0, 0, 0, 0, 0, 0, 0, 0, 0, 0, 0, 0, 0]"] ;
459 -> 463 ;
464 [label="shucked_weight_g <= 0.139\nentropy = 1.459\nsamples = 12\nvalue = [0, 0, 0, 0, 6, 2, 4, 0, 0, 0, 0, 0, 0, 0\n0, 0, 0, 0, 0, 0, 0, 0, 0, 0, 0, 0, 0]"] ;
452 -> 464 ;
465 [label="height_mm <= 0.102\nentropy = 0.954\nsamples = 8\nvalue = [0, 0, 0, 0, 5, 0, 3, 0, 0, 0, 0, 0, 0, 0\n0, 0, 0, 0, 0, 0, 0, 0, 0, 0, 0, 0, 0]"] ;
464 -> 465 ;
466 [label="entropy = 0.0\nsamples = 3\nvalue = [0, 0, 0, 0, 3, 0, 0, 0, 0, 0, 0, 0, 0, 0\n0, 0, 0, 0, 0, 0, 0, 0, 0, 0, 0, 0, 0]"] ;
465 -> 466 ;
467 [label="height_mm <= 0.113\nentropy = 0.971\nsamples = 5\nvalue = [0, 0, 0, 0, 2, 0, 3, 0, 0, 0, 0, 0, 0, 0\n0, 0, 0, 0, 0, 0, 0, 0, 0, 0, 0, 0, 0]"] ;
465 -> 467 ;
468 [label="entropy = 0.0\nsamples = 3\nvalue = [0, 0, 0, 0, 0, 0, 3, 0, 0, 0, 0, 0, 0, 0\n0, 0, 0, 0, 0, 0, 0, 0, 0, 0, 0, 0, 0]"] ;
467 -> 468 ;
469 [label="entropy = 0.0\nsamples = 2\nvalue = [0, 0, 0, 0, 2, 0, 0, 0, 0, 0, 0, 0, 0, 0\n0, 0, 0, 0, 0, 0, 0, 0, 0, 0, 0, 0, 0]"] ;
467 -> 469 ;
470 [label="length_mm <= 0.405\nentropy = 1.5\nsamples = 4\nvalue = [0, 0, 0, 0, 1, 2, 1, 0, 0, 0, 0, 0, 0, 0\n0, 0, 0, 0, 0, 0, 0, 0, 0, 0, 0, 0, 0]"] ;
464 -> 470 ;
471 [label="viscera_weight_g <= 0.073\nentropy = 1.0\nsamples = 2\nvalue = [0, 0, 0, 0, 1, 0, 1, 0, 0, 0, 0, 0, 0, 0\n0, 0, 0, 0, 0, 0, 0, 0, 0, 0, 0, 0, 0]"] ;
470 -> 471 ;
472 [label="entropy = 0.0\nsamples = 1\nvalue = [0, 0, 0, 0, 0, 0, 1, 0, 0, 0, 0, 0, 0, 0\n0, 0, 0, 0, 0, 0, 0, 0, 0, 0, 0, 0, 0]"] ;
471 -> 472 ;
473 [label="entropy = 0.0\nsamples = 1\nvalue = [0, 0, 0, 0, 1, 0, 0, 0, 0, 0, 0, 0, 0, 0\n0, 0, 0, 0, 0, 0, 0, 0, 0, 0, 0, 0, 0]"] ;
471 -> 473 ;
474 [label="entropy = 0.0\nsamples = 2\nvalue = [0, 0, 0, 0, 0, 2, 0, 0, 0, 0, 0, 0, 0, 0\n0, 0, 0, 0, 0, 0, 0, 0, 0, 0, 0, 0, 0]"] ;
470 -> 474 ;
475 [label="length_mm <= 0.43\nentropy = 0.811\nsamples = 4\nvalue = [0, 0, 0, 0, 0, 3, 0, 0, 1, 0, 0, 0, 0, 0\n0, 0, 0, 0, 0, 0, 0, 0, 0, 0, 0, 0, 0]"] ;
449 -> 475 ;
476 [label="entropy = 0.0\nsamples = 1\nvalue = [0, 0, 0, 0, 0, 0, 0, 0, 1, 0, 0, 0, 0, 0\n0, 0, 0, 0, 0, 0, 0, 0, 0, 0, 0, 0, 0]"] ;
475 -> 476 ;
477 [label="entropy = 0.0\nsamples = 3\nvalue = [0, 0, 0, 0, 0, 3, 0, 0, 0, 0, 0, 0, 0, 0\n0, 0, 0, 0, 0, 0, 0, 0, 0, 0, 0, 0, 0]"] ;
475 -> 477 ;
478 [label="length_mm <= 0.422\nentropy = 2.47\nsamples = 13\nvalue = [0, 0, 0, 0, 0, 2, 2, 4, 2, 2, 1, 0, 0, 0\n0, 0, 0, 0, 0, 0, 0, 0, 0, 0, 0, 0, 0]"] ;
324 -> 478 ;
479 [label="whole_weight_g <= 0.356\nentropy = 1.459\nsamples = 6\nvalue = [0, 0, 0, 0, 0, 0, 0, 3, 2, 0, 1, 0, 0, 0\n0, 0, 0, 0, 0, 0, 0, 0, 0, 0, 0, 0, 0]"] ;
478 -> 479 ;
480 [label="length_mm <= 0.403\nentropy = 0.811\nsamples = 4\nvalue = [0, 0, 0, 0, 0, 0, 0, 3, 1, 0, 0, 0, 0, 0\n0, 0, 0, 0, 0, 0, 0, 0, 0, 0, 0, 0, 0]"] ;
479 -> 480 ;
481 [label="entropy = 0.0\nsamples = 1\nvalue = [0, 0, 0, 0, 0, 0, 0, 0, 1, 0, 0, 0, 0, 0\n0, 0, 0, 0, 0, 0, 0, 0, 0, 0, 0, 0, 0]"] ;
480 -> 481 ;
482 [label="entropy = 0.0\nsamples = 3\nvalue = [0, 0, 0, 0, 0, 0, 0, 3, 0, 0, 0, 0, 0, 0\n0, 0, 0, 0, 0, 0, 0, 0, 0, 0, 0, 0, 0]"] ;
480 -> 482 ;
483 [label="whole_weight_g <= 0.359\nentropy = 1.0\nsamples = 2\nvalue = [0, 0, 0, 0, 0, 0, 0, 0, 1, 0, 1, 0, 0, 0\n0, 0, 0, 0, 0, 0, 0, 0, 0, 0, 0, 0, 0]"] ;
479 -> 483 ;
484 [label="entropy = 0.0\nsamples = 1\nvalue = [0, 0, 0, 0, 0, 0, 0, 0, 0, 0, 1, 0, 0, 0\n0, 0, 0, 0, 0, 0, 0, 0, 0, 0, 0, 0, 0]"] ;
483 -> 484 ;
485 [label="entropy = 0.0\nsamples = 1\nvalue = [0, 0, 0, 0, 0, 0, 0, 0, 1, 0, 0, 0, 0, 0\n0, 0, 0, 0, 0, 0, 0, 0, 0, 0, 0, 0, 0]"] ;
483 -> 485 ;
486 [label="shucked_weight_g <= 0.145\nentropy = 1.95\nsamples = 7\nvalue = [0, 0, 0, 0, 0, 2, 2, 1, 0, 2, 0, 0, 0, 0\n0, 0, 0, 0, 0, 0, 0, 0, 0, 0, 0, 0, 0]"] ;
478 -> 486 ;
487 [label="whole_weight_g <= 0.361\nentropy = 0.918\nsamples = 3\nvalue = [0, 0, 0, 0, 0, 0, 0, 1, 0, 2, 0, 0, 0, 0\n0, 0, 0, 0, 0, 0, 0, 0, 0, 0, 0, 0, 0]"] ;
486 -> 487 ;
488 [label="entropy = 0.0\nsamples = 2\nvalue = [0, 0, 0, 0, 0, 0, 0, 0, 0, 2, 0, 0, 0, 0\n0, 0, 0, 0, 0, 0, 0, 0, 0, 0, 0, 0, 0]"] ;
487 -> 488 ;
489 [label="entropy = 0.0\nsamples = 1\nvalue = [0, 0, 0, 0, 0, 0, 0, 1, 0, 0, 0, 0, 0, 0\n0, 0, 0, 0, 0, 0, 0, 0, 0, 0, 0, 0, 0]"] ;
487 -> 489 ;
490 [label="length_mm <= 0.433\nentropy = 1.0\nsamples = 4\nvalue = [0, 0, 0, 0, 0, 2, 2, 0, 0, 0, 0, 0, 0, 0\n0, 0, 0, 0, 0, 0, 0, 0, 0, 0, 0, 0, 0]"] ;
486 -> 490 ;
491 [label="entropy = 0.0\nsamples = 2\nvalue = [0, 0, 0, 0, 0, 0, 2, 0, 0, 0, 0, 0, 0, 0\n0, 0, 0, 0, 0, 0, 0, 0, 0, 0, 0, 0, 0]"] ;
490 -> 491 ;
492 [label="entropy = 0.0\nsamples = 2\nvalue = [0, 0, 0, 0, 0, 2, 0, 0, 0, 0, 0, 0, 0, 0\n0, 0, 0, 0, 0, 0, 0, 0, 0, 0, 0, 0, 0]"] ;
490 -> 492 ;
493 [label="shell_weight_g <= 0.103\nentropy = 2.086\nsamples = 115\nvalue = [0, 0, 0, 2, 36, 46, 19, 7, 0, 3, 1, 0, 1, 0\n0, 0, 0, 0, 0, 0, 0, 0, 0, 0, 0, 0, 0]"] ;
323 -> 493 ;
494 [label="viscera_weight_g <= 0.103\nentropy = 1.719\nsamples = 46\nvalue = [0, 0, 0, 2, 19, 19, 5, 0, 0, 0, 1, 0, 0, 0\n0, 0, 0, 0, 0, 0, 0, 0, 0, 0, 0, 0, 0]"] ;
493 -> 494 ;
495 [label="shell_weight_g <= 0.098\nentropy = 1.563\nsamples = 44\nvalue = [0, 0, 0, 2, 19, 19, 4, 0, 0, 0, 0, 0, 0, 0\n0, 0, 0, 0, 0, 0, 0, 0, 0, 0, 0, 0, 0]"] ;
494 -> 495 ;
496 [label="viscera_weight_g <= 0.067\nentropy = 1.336\nsamples = 32\nvalue = [0, 0, 0, 0, 17, 12, 3, 0, 0, 0, 0, 0, 0, 0\n0, 0, 0, 0, 0, 0, 0, 0, 0, 0, 0, 0, 0]"] ;
495 -> 496 ;
497 [label="length_mm <= 0.395\nentropy = 0.866\nsamples = 11\nvalue = [0, 0, 0, 0, 9, 1, 1, 0, 0, 0, 0, 0, 0, 0\n0, 0, 0, 0, 0, 0, 0, 0, 0, 0, 0, 0, 0]"] ;
496 -> 497 ;
498 [label="length_mm <= 0.385\nentropy = 1.0\nsamples = 2\nvalue = [0, 0, 0, 0, 1, 1, 0, 0, 0, 0, 0, 0, 0, 0\n0, 0, 0, 0, 0, 0, 0, 0, 0, 0, 0, 0, 0]"] ;
497 -> 498 ;
499 [label="entropy = 0.0\nsamples = 1\nvalue = [0, 0, 0, 0, 1, 0, 0, 0, 0, 0, 0, 0, 0, 0\n0, 0, 0, 0, 0, 0, 0, 0, 0, 0, 0, 0, 0]"] ;
498 -> 499 ;
500 [label="entropy = 0.0\nsamples = 1\nvalue = [0, 0, 0, 0, 0, 1, 0, 0, 0, 0, 0, 0, 0, 0\n0, 0, 0, 0, 0, 0, 0, 0, 0, 0, 0, 0, 0]"] ;
498 -> 500 ;
501 [label="viscera_weight_g <= 0.063\nentropy = 0.503\nsamples = 9\nvalue = [0, 0, 0, 0, 8, 0, 1, 0, 0, 0, 0, 0, 0, 0\n0, 0, 0, 0, 0, 0, 0, 0, 0, 0, 0, 0, 0]"] ;
497 -> 501 ;
502 [label="entropy = 0.0\nsamples = 6\nvalue = [0, 0, 0, 0, 6, 0, 0, 0, 0, 0, 0, 0, 0, 0\n0, 0, 0, 0, 0, 0, 0, 0, 0, 0, 0, 0, 0]"] ;
501 -> 502 ;
503 [label="shell_weight_g <= 0.086\nentropy = 0.918\nsamples = 3\nvalue = [0, 0, 0, 0, 2, 0, 1, 0, 0, 0, 0, 0, 0, 0\n0, 0, 0, 0, 0, 0, 0, 0, 0, 0, 0, 0, 0]"] ;
501 -> 503 ;
504 [label="entropy = 0.0\nsamples = 1\nvalue = [0, 0, 0, 0, 0, 0, 1, 0, 0, 0, 0, 0, 0, 0\n0, 0, 0, 0, 0, 0, 0, 0, 0, 0, 0, 0, 0]"] ;
503 -> 504 ;
505 [label="entropy = 0.0\nsamples = 2\nvalue = [0, 0, 0, 0, 2, 0, 0, 0, 0, 0, 0, 0, 0, 0\n0, 0, 0, 0, 0, 0, 0, 0, 0, 0, 0, 0, 0]"] ;
503 -> 505 ;
506 [label="diam_mm <= 0.312\nentropy = 1.342\nsamples = 21\nvalue = [0, 0, 0, 0, 8, 11, 2, 0, 0, 0, 0, 0, 0, 0\n0, 0, 0, 0, 0, 0, 0, 0, 0, 0, 0, 0, 0]"] ;
496 -> 506 ;
507 [label="entropy = 0.0\nsamples = 6\nvalue = [0, 0, 0, 0, 0, 6, 0, 0, 0, 0, 0, 0, 0, 0\n0, 0, 0, 0, 0, 0, 0, 0, 0, 0, 0, 0, 0]"] ;
506 -> 507 ;
508 [label="length_mm <= 0.428\nentropy = 1.4\nsamples = 15\nvalue = [0, 0, 0, 0, 8, 5, 2, 0, 0, 0, 0, 0, 0, 0\n0, 0, 0, 0, 0, 0, 0, 0, 0, 0, 0, 0, 0]"] ;
506 -> 508 ;
509 [label="shell_weight_g <= 0.094\nentropy = 0.722\nsamples = 5\nvalue = [0, 0, 0, 0, 4, 0, 1, 0, 0, 0, 0, 0, 0, 0\n0, 0, 0, 0, 0, 0, 0, 0, 0, 0, 0, 0, 0]"] ;
508 -> 509 ;
510 [label="entropy = 0.0\nsamples = 4\nvalue = [0, 0, 0, 0, 4, 0, 0, 0, 0, 0, 0, 0, 0, 0\n0, 0, 0, 0, 0, 0, 0, 0, 0, 0, 0, 0, 0]"] ;
509 -> 510 ;
511 [label="entropy = 0.0\nsamples = 1\nvalue = [0, 0, 0, 0, 0, 0, 1, 0, 0, 0, 0, 0, 0, 0\n0, 0, 0, 0, 0, 0, 0, 0, 0, 0, 0, 0, 0]"] ;
509 -> 511 ;
512 [label="shell_weight_g <= 0.095\nentropy = 1.361\nsamples = 10\nvalue = [0, 0, 0, 0, 4, 5, 1, 0, 0, 0, 0, 0, 0, 0\n0, 0, 0, 0, 0, 0, 0, 0, 0, 0, 0, 0, 0]"] ;
508 -> 512 ;
513 [label="viscera_weight_g <= 0.077\nentropy = 0.65\nsamples = 6\nvalue = [0, 0, 0, 0, 1, 5, 0, 0, 0, 0, 0, 0, 0, 0\n0, 0, 0, 0, 0, 0, 0, 0, 0, 0, 0, 0, 0]"] ;
512 -> 513 ;
514 [label="entropy = 0.0\nsamples = 1\nvalue = [0, 0, 0, 0, 1, 0, 0, 0, 0, 0, 0, 0, 0, 0\n0, 0, 0, 0, 0, 0, 0, 0, 0, 0, 0, 0, 0]"] ;
513 -> 514 ;
515 [label="entropy = 0.0\nsamples = 5\nvalue = [0, 0, 0, 0, 0, 5, 0, 0, 0, 0, 0, 0, 0, 0\n0, 0, 0, 0, 0, 0, 0, 0, 0, 0, 0, 0, 0]"] ;
513 -> 515 ;
516 [label="diam_mm <= 0.335\nentropy = 0.811\nsamples = 4\nvalue = [0, 0, 0, 0, 3, 0, 1, 0, 0, 0, 0, 0, 0, 0\n0, 0, 0, 0, 0, 0, 0, 0, 0, 0, 0, 0, 0]"] ;
512 -> 516 ;
517 [label="entropy = 0.0\nsamples = 3\nvalue = [0, 0, 0, 0, 3, 0, 0, 0, 0, 0, 0, 0, 0, 0\n0, 0, 0, 0, 0, 0, 0, 0, 0, 0, 0, 0, 0]"] ;
516 -> 517 ;
518 [label="entropy = 0.0\nsamples = 1\nvalue = [0, 0, 0, 0, 0, 0, 1, 0, 0, 0, 0, 0, 0, 0\n0, 0, 0, 0, 0, 0, 0, 0, 0, 0, 0, 0, 0]"] ;
516 -> 518 ;
519 [label="shucked_weight_g <= 0.171\nentropy = 1.614\nsamples = 12\nvalue = [0, 0, 0, 2, 2, 7, 1, 0, 0, 0, 0, 0, 0, 0\n0, 0, 0, 0, 0, 0, 0, 0, 0, 0, 0, 0, 0]"] ;
495 -> 519 ;
520 [label="diam_mm <= 0.315\nentropy = 1.918\nsamples = 6\nvalue = [0, 0, 0, 2, 2, 1, 1, 0, 0, 0, 0, 0, 0, 0\n0, 0, 0, 0, 0, 0, 0, 0, 0, 0, 0, 0, 0]"] ;
519 -> 520 ;
521 [label="shucked_weight_g <= 0.161\nentropy = 1.0\nsamples = 2\nvalue = [0, 0, 0, 0, 0, 1, 1, 0, 0, 0, 0, 0, 0, 0\n0, 0, 0, 0, 0, 0, 0, 0, 0, 0, 0, 0, 0]"] ;
520 -> 521 ;
522 [label="entropy = 0.0\nsamples = 1\nvalue = [0, 0, 0, 0, 0, 1, 0, 0, 0, 0, 0, 0, 0, 0\n0, 0, 0, 0, 0, 0, 0, 0, 0, 0, 0, 0, 0]"] ;
521 -> 522 ;
523 [label="entropy = 0.0\nsamples = 1\nvalue = [0, 0, 0, 0, 0, 0, 1, 0, 0, 0, 0, 0, 0, 0\n0, 0, 0, 0, 0, 0, 0, 0, 0, 0, 0, 0, 0]"] ;
521 -> 523 ;
524 [label="whole_weight_g <= 0.369\nentropy = 1.0\nsamples = 4\nvalue = [0, 0, 0, 2, 2, 0, 0, 0, 0, 0, 0, 0, 0, 0\n0, 0, 0, 0, 0, 0, 0, 0, 0, 0, 0, 0, 0]"] ;
520 -> 524 ;
525 [label="entropy = 0.0\nsamples = 1\nvalue = [0, 0, 0, 0, 1, 0, 0, 0, 0, 0, 0, 0, 0, 0\n0, 0, 0, 0, 0, 0, 0, 0, 0, 0, 0, 0, 0]"] ;
524 -> 525 ;
526 [label="whole_weight_g <= 0.379\nentropy = 0.918\nsamples = 3\nvalue = [0, 0, 0, 2, 1, 0, 0, 0, 0, 0, 0, 0, 0, 0\n0, 0, 0, 0, 0, 0, 0, 0, 0, 0, 0, 0, 0]"] ;
524 -> 526 ;
527 [label="entropy = 0.0\nsamples = 2\nvalue = [0, 0, 0, 2, 0, 0, 0, 0, 0, 0, 0, 0, 0, 0\n0, 0, 0, 0, 0, 0, 0, 0, 0, 0, 0, 0, 0]"] ;
526 -> 527 ;
528 [label="entropy = 0.0\nsamples = 1\nvalue = [0, 0, 0, 0, 1, 0, 0, 0, 0, 0, 0, 0, 0, 0\n0, 0, 0, 0, 0, 0, 0, 0, 0, 0, 0, 0, 0]"] ;
526 -> 528 ;
529 [label="entropy = 0.0\nsamples = 6\nvalue = [0, 0, 0, 0, 0, 6, 0, 0, 0, 0, 0, 0, 0, 0\n0, 0, 0, 0, 0, 0, 0, 0, 0, 0, 0, 0, 0]"] ;
519 -> 529 ;
530 [label="length_mm <= 0.42\nentropy = 1.0\nsamples = 2\nvalue = [0, 0, 0, 0, 0, 0, 1, 0, 0, 0, 1, 0, 0, 0\n0, 0, 0, 0, 0, 0, 0, 0, 0, 0, 0, 0, 0]"] ;
494 -> 530 ;
531 [label="entropy = 0.0\nsamples = 1\nvalue = [0, 0, 0, 0, 0, 0, 1, 0, 0, 0, 0, 0, 0, 0\n0, 0, 0, 0, 0, 0, 0, 0, 0, 0, 0, 0, 0]"] ;
530 -> 531 ;
532 [label="entropy = 0.0\nsamples = 1\nvalue = [0, 0, 0, 0, 0, 0, 0, 0, 0, 0, 1, 0, 0, 0\n0, 0, 0, 0, 0, 0, 0, 0, 0, 0, 0, 0, 0]"] ;
530 -> 532 ;
533 [label="length_mm <= 0.433\nentropy = 2.115\nsamples = 69\nvalue = [0, 0, 0, 0, 17, 27, 14, 7, 0, 3, 0, 0, 1, 0\n0, 0, 0, 0, 0, 0, 0, 0, 0, 0, 0, 0, 0]"] ;
493 -> 533 ;
534 [label="height_mm <= 0.107\nentropy = 1.857\nsamples = 22\nvalue = [0, 0, 0, 0, 5, 7, 8, 0, 0, 2, 0, 0, 0, 0\n0, 0, 0, 0, 0, 0, 0, 0, 0, 0, 0, 0, 0]"] ;
533 -> 534 ;
535 [label="viscera_weight_g <= 0.065\nentropy = 1.922\nsamples = 13\nvalue = [0, 0, 0, 0, 5, 3, 3, 0, 0, 2, 0, 0, 0, 0\n0, 0, 0, 0, 0, 0, 0, 0, 0, 0, 0, 0, 0]"] ;
534 -> 535 ;
536 [label="entropy = 0.0\nsamples = 2\nvalue = [0, 0, 0, 0, 0, 0, 0, 0, 0, 2, 0, 0, 0, 0\n0, 0, 0, 0, 0, 0, 0, 0, 0, 0, 0, 0, 0]"] ;
535 -> 536 ;
537 [label="shell_weight_g <= 0.105\nentropy = 1.539\nsamples = 11\nvalue = [0, 0, 0, 0, 5, 3, 3, 0, 0, 0, 0, 0, 0, 0\n0, 0, 0, 0, 0, 0, 0, 0, 0, 0, 0, 0, 0]"] ;
535 -> 537 ;
538 [label="entropy = 0.0\nsamples = 2\nvalue = [0, 0, 0, 0, 0, 0, 2, 0, 0, 0, 0, 0, 0, 0\n0, 0, 0, 0, 0, 0, 0, 0, 0, 0, 0, 0, 0]"] ;
537 -> 538 ;
539 [label="shell_weight_g <= 0.115\nentropy = 1.352\nsamples = 9\nvalue = [0, 0, 0, 0, 5, 3, 1, 0, 0, 0, 0, 0, 0, 0\n0, 0, 0, 0, 0, 0, 0, 0, 0, 0, 0, 0, 0]"] ;
537 -> 539 ;
540 [label="whole_weight_g <= 0.365\nentropy = 0.954\nsamples = 8\nvalue = [0, 0, 0, 0, 5, 3, 0, 0, 0, 0, 0, 0, 0, 0\n0, 0, 0, 0, 0, 0, 0, 0, 0, 0, 0, 0, 0]"] ;
539 -> 540 ;
541 [label="entropy = 0.0\nsamples = 2\nvalue = [0, 0, 0, 0, 0, 2, 0, 0, 0, 0, 0, 0, 0, 0\n0, 0, 0, 0, 0, 0, 0, 0, 0, 0, 0, 0, 0]"] ;
540 -> 541 ;
542 [label="shell_weight_g <= 0.112\nentropy = 0.65\nsamples = 6\nvalue = [0, 0, 0, 0, 5, 1, 0, 0, 0, 0, 0, 0, 0, 0\n0, 0, 0, 0, 0, 0, 0, 0, 0, 0, 0, 0, 0]"] ;
540 -> 542 ;
543 [label="entropy = 0.0\nsamples = 5\nvalue = [0, 0, 0, 0, 5, 0, 0, 0, 0, 0, 0, 0, 0, 0\n0, 0, 0, 0, 0, 0, 0, 0, 0, 0, 0, 0, 0]"] ;
542 -> 543 ;
544 [label="entropy = 0.0\nsamples = 1\nvalue = [0, 0, 0, 0, 0, 1, 0, 0, 0, 0, 0, 0, 0, 0\n0, 0, 0, 0, 0, 0, 0, 0, 0, 0, 0, 0, 0]"] ;
542 -> 544 ;
545 [label="entropy = 0.0\nsamples = 1\nvalue = [0, 0, 0, 0, 0, 0, 1, 0, 0, 0, 0, 0, 0, 0\n0, 0, 0, 0, 0, 0, 0, 0, 0, 0, 0, 0, 0]"] ;
539 -> 545 ;
546 [label="viscera_weight_g <= 0.089\nentropy = 0.991\nsamples = 9\nvalue = [0, 0, 0, 0, 0, 4, 5, 0, 0, 0, 0, 0, 0, 0\n0, 0, 0, 0, 0, 0, 0, 0, 0, 0, 0, 0, 0]"] ;
534 -> 546 ;
547 [label="shell_weight_g <= 0.109\nentropy = 0.918\nsamples = 6\nvalue = [0, 0, 0, 0, 0, 4, 2, 0, 0, 0, 0, 0, 0, 0\n0, 0, 0, 0, 0, 0, 0, 0, 0, 0, 0, 0, 0]"] ;
546 -> 547 ;
548 [label="whole_weight_g <= 0.358\nentropy = 0.722\nsamples = 5\nvalue = [0, 0, 0, 0, 0, 4, 1, 0, 0, 0, 0, 0, 0, 0\n0, 0, 0, 0, 0, 0, 0, 0, 0, 0, 0, 0, 0]"] ;
547 -> 548 ;
549 [label="entropy = 0.0\nsamples = 1\nvalue = [0, 0, 0, 0, 0, 0, 1, 0, 0, 0, 0, 0, 0, 0\n0, 0, 0, 0, 0, 0, 0, 0, 0, 0, 0, 0, 0]"] ;
548 -> 549 ;
550 [label="entropy = 0.0\nsamples = 4\nvalue = [0, 0, 0, 0, 0, 4, 0, 0, 0, 0, 0, 0, 0, 0\n0, 0, 0, 0, 0, 0, 0, 0, 0, 0, 0, 0, 0]"] ;
548 -> 550 ;
551 [label="entropy = 0.0\nsamples = 1\nvalue = [0, 0, 0, 0, 0, 0, 1, 0, 0, 0, 0, 0, 0, 0\n0, 0, 0, 0, 0, 0, 0, 0, 0, 0, 0, 0, 0]"] ;
547 -> 551 ;
552 [label="entropy = 0.0\nsamples = 3\nvalue = [0, 0, 0, 0, 0, 0, 3, 0, 0, 0, 0, 0, 0, 0\n0, 0, 0, 0, 0, 0, 0, 0, 0, 0, 0, 0, 0]"] ;
546 -> 552 ;
553 [label="height_mm <= 0.113\nentropy = 2.052\nsamples = 47\nvalue = [0, 0, 0, 0, 12, 20, 6, 7, 0, 1, 0, 0, 1, 0\n0, 0, 0, 0, 0, 0, 0, 0, 0, 0, 0, 0, 0]"] ;
533 -> 553 ;
554 [label="shell_weight_g <= 0.11\nentropy = 1.809\nsamples = 29\nvalue = [0, 0, 0, 0, 4, 14, 6, 5, 0, 0, 0, 0, 0, 0\n0, 0, 0, 0, 0, 0, 0, 0, 0, 0, 0, 0, 0]"] ;
553 -> 554 ;
555 [label="viscera_weight_g <= 0.08\nentropy = 1.922\nsamples = 13\nvalue = [0, 0, 0, 0, 3, 3, 5, 2, 0, 0, 0, 0, 0, 0\n0, 0, 0, 0, 0, 0, 0, 0, 0, 0, 0, 0, 0]"] ;
554 -> 555 ;
556 [label="length_mm <= 0.453\nentropy = 1.449\nsamples = 7\nvalue = [0, 0, 0, 0, 1, 3, 3, 0, 0, 0, 0, 0, 0, 0\n0, 0, 0, 0, 0, 0, 0, 0, 0, 0, 0, 0, 0]"] ;
555 -> 556 ;
557 [label="entropy = 0.0\nsamples = 3\nvalue = [0, 0, 0, 0, 0, 3, 0, 0, 0, 0, 0, 0, 0, 0\n0, 0, 0, 0, 0, 0, 0, 0, 0, 0, 0, 0, 0]"] ;
556 -> 557 ;
558 [label="length_mm <= 0.463\nentropy = 0.811\nsamples = 4\nvalue = [0, 0, 0, 0, 1, 0, 3, 0, 0, 0, 0, 0, 0, 0\n0, 0, 0, 0, 0, 0, 0, 0, 0, 0, 0, 0, 0]"] ;
556 -> 558 ;
559 [label="entropy = 0.0\nsamples = 3\nvalue = [0, 0, 0, 0, 0, 0, 3, 0, 0, 0, 0, 0, 0, 0\n0, 0, 0, 0, 0, 0, 0, 0, 0, 0, 0, 0, 0]"] ;
558 -> 559 ;
560 [label="entropy = 0.0\nsamples = 1\nvalue = [0, 0, 0, 0, 1, 0, 0, 0, 0, 0, 0, 0, 0, 0\n0, 0, 0, 0, 0, 0, 0, 0, 0, 0, 0, 0, 0]"] ;
558 -> 560 ;
561 [label="shucked_weight_g <= 0.192\nentropy = 1.585\nsamples = 6\nvalue = [0, 0, 0, 0, 2, 0, 2, 2, 0, 0, 0, 0, 0, 0\n0, 0, 0, 0, 0, 0, 0, 0, 0, 0, 0, 0, 0]"] ;
555 -> 561 ;
562 [label="diam_mm <= 0.33\nentropy = 0.918\nsamples = 3\nvalue = [0, 0, 0, 0, 2, 0, 0, 1, 0, 0, 0, 0, 0, 0\n0, 0, 0, 0, 0, 0, 0, 0, 0, 0, 0, 0, 0]"] ;
561 -> 562 ;
563 [label="entropy = 0.0\nsamples = 2\nvalue = [0, 0, 0, 0, 2, 0, 0, 0, 0, 0, 0, 0, 0, 0\n0, 0, 0, 0, 0, 0, 0, 0, 0, 0, 0, 0, 0]"] ;
562 -> 563 ;
564 [label="entropy = 0.0\nsamples = 1\nvalue = [0, 0, 0, 0, 0, 0, 0, 1, 0, 0, 0, 0, 0, 0\n0, 0, 0, 0, 0, 0, 0, 0, 0, 0, 0, 0, 0]"] ;
562 -> 564 ;
565 [label="shell_weight_g <= 0.106\nentropy = 0.918\nsamples = 3\nvalue = [0, 0, 0, 0, 0, 0, 2, 1, 0, 0, 0, 0, 0, 0\n0, 0, 0, 0, 0, 0, 0, 0, 0, 0, 0, 0, 0]"] ;
561 -> 565 ;
566 [label="entropy = 0.0\nsamples = 1\nvalue = [0, 0, 0, 0, 0, 0, 0, 1, 0, 0, 0, 0, 0, 0\n0, 0, 0, 0, 0, 0, 0, 0, 0, 0, 0, 0, 0]"] ;
565 -> 566 ;
567 [label="entropy = 0.0\nsamples = 2\nvalue = [0, 0, 0, 0, 0, 0, 2, 0, 0, 0, 0, 0, 0, 0\n0, 0, 0, 0, 0, 0, 0, 0, 0, 0, 0, 0, 0]"] ;
565 -> 567 ;
568 [label="viscera_weight_g <= 0.091\nentropy = 1.324\nsamples = 16\nvalue = [0, 0, 0, 0, 1, 11, 1, 3, 0, 0, 0, 0, 0, 0\n0, 0, 0, 0, 0, 0, 0, 0, 0, 0, 0, 0, 0]"] ;
554 -> 568 ;
569 [label="diam_mm <= 0.347\nentropy = 1.352\nsamples = 9\nvalue = [0, 0, 0, 0, 1, 5, 0, 3, 0, 0, 0, 0, 0, 0\n0, 0, 0, 0, 0, 0, 0, 0, 0, 0, 0, 0, 0]"] ;
568 -> 569 ;
570 [label="viscera_weight_g <= 0.089\nentropy = 0.65\nsamples = 6\nvalue = [0, 0, 0, 0, 0, 5, 0, 1, 0, 0, 0, 0, 0, 0\n0, 0, 0, 0, 0, 0, 0, 0, 0, 0, 0, 0, 0]"] ;
569 -> 570 ;
571 [label="entropy = 0.0\nsamples = 5\nvalue = [0, 0, 0, 0, 0, 5, 0, 0, 0, 0, 0, 0, 0, 0\n0, 0, 0, 0, 0, 0, 0, 0, 0, 0, 0, 0, 0]"] ;
570 -> 571 ;
572 [label="entropy = 0.0\nsamples = 1\nvalue = [0, 0, 0, 0, 0, 0, 0, 1, 0, 0, 0, 0, 0, 0\n0, 0, 0, 0, 0, 0, 0, 0, 0, 0, 0, 0, 0]"] ;
570 -> 572 ;
573 [label="shell_weight_g <= 0.115\nentropy = 0.918\nsamples = 3\nvalue = [0, 0, 0, 0, 1, 0, 0, 2, 0, 0, 0, 0, 0, 0\n0, 0, 0, 0, 0, 0, 0, 0, 0, 0, 0, 0, 0]"] ;
569 -> 573 ;
574 [label="entropy = 0.0\nsamples = 2\nvalue = [0, 0, 0, 0, 0, 0, 0, 2, 0, 0, 0, 0, 0, 0\n0, 0, 0, 0, 0, 0, 0, 0, 0, 0, 0, 0, 0]"] ;
573 -> 574 ;
575 [label="entropy = 0.0\nsamples = 1\nvalue = [0, 0, 0, 0, 1, 0, 0, 0, 0, 0, 0, 0, 0, 0\n0, 0, 0, 0, 0, 0, 0, 0, 0, 0, 0, 0, 0]"] ;
573 -> 575 ;
576 [label="whole_weight_g <= 0.407\nentropy = 0.592\nsamples = 7\nvalue = [0, 0, 0, 0, 0, 6, 1, 0, 0, 0, 0, 0, 0, 0\n0, 0, 0, 0, 0, 0, 0, 0, 0, 0, 0, 0, 0]"] ;
568 -> 576 ;
577 [label="entropy = 0.0\nsamples = 1\nvalue = [0, 0, 0, 0, 0, 0, 1, 0, 0, 0, 0, 0, 0, 0\n0, 0, 0, 0, 0, 0, 0, 0, 0, 0, 0, 0, 0]"] ;
576 -> 577 ;
578 [label="entropy = 0.0\nsamples = 6\nvalue = [0, 0, 0, 0, 0, 6, 0, 0, 0, 0, 0, 0, 0, 0\n0, 0, 0, 0, 0, 0, 0, 0, 0, 0, 0, 0, 0]"] ;
576 -> 578 ;
579 [label="viscera_weight_g <= 0.1\nentropy = 1.864\nsamples = 18\nvalue = [0, 0, 0, 0, 8, 6, 0, 2, 0, 1, 0, 0, 1, 0\n0, 0, 0, 0, 0, 0, 0, 0, 0, 0, 0, 0, 0]"] ;
553 -> 579 ;
580 [label="shell_weight_g <= 0.114\nentropy = 1.617\nsamples = 11\nvalue = [0, 0, 0, 0, 3, 6, 0, 1, 0, 0, 0, 0, 1, 0\n0, 0, 0, 0, 0, 0, 0, 0, 0, 0, 0, 0, 0]"] ;
579 -> 580 ;
581 [label="diam_mm <= 0.32\nentropy = 0.65\nsamples = 6\nvalue = [0, 0, 0, 0, 0, 5, 0, 1, 0, 0, 0, 0, 0, 0\n0, 0, 0, 0, 0, 0, 0, 0, 0, 0, 0, 0, 0]"] ;
580 -> 581 ;
582 [label="entropy = 0.0\nsamples = 1\nvalue = [0, 0, 0, 0, 0, 0, 0, 1, 0, 0, 0, 0, 0, 0\n0, 0, 0, 0, 0, 0, 0, 0, 0, 0, 0, 0, 0]"] ;
581 -> 582 ;
583 [label="entropy = 0.0\nsamples = 5\nvalue = [0, 0, 0, 0, 0, 5, 0, 0, 0, 0, 0, 0, 0, 0\n0, 0, 0, 0, 0, 0, 0, 0, 0, 0, 0, 0, 0]"] ;
581 -> 583 ;
584 [label="height_mm <= 0.13\nentropy = 1.371\nsamples = 5\nvalue = [0, 0, 0, 0, 3, 1, 0, 0, 0, 0, 0, 0, 1, 0\n0, 0, 0, 0, 0, 0, 0, 0, 0, 0, 0, 0, 0]"] ;
580 -> 584 ;
585 [label="length_mm <= 0.455\nentropy = 0.811\nsamples = 4\nvalue = [0, 0, 0, 0, 3, 1, 0, 0, 0, 0, 0, 0, 0, 0\n0, 0, 0, 0, 0, 0, 0, 0, 0, 0, 0, 0, 0]"] ;
584 -> 585 ;
586 [label="entropy = 0.0\nsamples = 3\nvalue = [0, 0, 0, 0, 3, 0, 0, 0, 0, 0, 0, 0, 0, 0\n0, 0, 0, 0, 0, 0, 0, 0, 0, 0, 0, 0, 0]"] ;
585 -> 586 ;
587 [label="entropy = 0.0\nsamples = 1\nvalue = [0, 0, 0, 0, 0, 1, 0, 0, 0, 0, 0, 0, 0, 0\n0, 0, 0, 0, 0, 0, 0, 0, 0, 0, 0, 0, 0]"] ;
585 -> 587 ;
588 [label="entropy = 0.0\nsamples = 1\nvalue = [0, 0, 0, 0, 0, 0, 0, 0, 0, 0, 0, 0, 1, 0\n0, 0, 0, 0, 0, 0, 0, 0, 0, 0, 0, 0, 0]"] ;
584 -> 588 ;
589 [label="height_mm <= 0.138\nentropy = 1.149\nsamples = 7\nvalue = [0, 0, 0, 0, 5, 0, 0, 1, 0, 1, 0, 0, 0, 0\n0, 0, 0, 0, 0, 0, 0, 0, 0, 0, 0, 0, 0]"] ;
579 -> 589 ;
590 [label="diam_mm <= 0.352\nentropy = 0.65\nsamples = 6\nvalue = [0, 0, 0, 0, 5, 0, 0, 0, 0, 1, 0, 0, 0, 0\n0, 0, 0, 0, 0, 0, 0, 0, 0, 0, 0, 0, 0]"] ;
589 -> 590 ;
591 [label="entropy = 0.0\nsamples = 5\nvalue = [0, 0, 0, 0, 5, 0, 0, 0, 0, 0, 0, 0, 0, 0\n0, 0, 0, 0, 0, 0, 0, 0, 0, 0, 0, 0, 0]"] ;
590 -> 591 ;
592 [label="entropy = 0.0\nsamples = 1\nvalue = [0, 0, 0, 0, 0, 0, 0, 0, 0, 1, 0, 0, 0, 0\n0, 0, 0, 0, 0, 0, 0, 0, 0, 0, 0, 0, 0]"] ;
590 -> 592 ;
593 [label="entropy = 0.0\nsamples = 1\nvalue = [0, 0, 0, 0, 0, 0, 0, 1, 0, 0, 0, 0, 0, 0\n0, 0, 0, 0, 0, 0, 0, 0, 0, 0, 0, 0, 0]"] ;
589 -> 593 ;
594 [label="length_mm <= 0.403\nentropy = 2.808\nsamples = 95\nvalue = [0, 0, 0, 0, 9, 21, 16, 24, 9, 8, 4, 1, 1, 2\n0, 0, 0, 0, 0, 0, 0, 0, 0, 0, 0, 0, 0]"] ;
196 -> 594 ;
595 [label="diam_mm <= 0.278\nentropy = 2.743\nsamples = 65\nvalue = [0, 0, 0, 0, 8, 11, 8, 18, 9, 6, 4, 1, 0, 0\n0, 0, 0, 0, 0, 0, 0, 0, 0, 0, 0, 0, 0]"] ;
594 -> 595 ;
596 [label="whole_weight_g <= 0.21\nentropy = 2.656\nsamples = 34\nvalue = [0, 0, 0, 0, 7, 8, 4, 6, 6, 1, 1, 1, 0, 0\n0, 0, 0, 0, 0, 0, 0, 0, 0, 0, 0, 0, 0]"] ;
595 -> 596 ;
597 [label="length_mm <= 0.352\nentropy = 2.439\nsamples = 21\nvalue = [0, 0, 0, 0, 1, 4, 2, 6, 6, 1, 1, 0, 0, 0\n0, 0, 0, 0, 0, 0, 0, 0, 0, 0, 0, 0, 0]"] ;
596 -> 597 ;
598 [label="length_mm <= 0.328\nentropy = 2.194\nsamples = 19\nvalue = [0, 0, 0, 0, 1, 4, 0, 6, 6, 1, 1, 0, 0, 0\n0, 0, 0, 0, 0, 0, 0, 0, 0, 0, 0, 0, 0]"] ;
597 -> 598 ;
599 [label="shell_weight_g <= 0.049\nentropy = 1.522\nsamples = 5\nvalue = [0, 0, 0, 0, 1, 2, 0, 2, 0, 0, 0, 0, 0, 0\n0, 0, 0, 0, 0, 0, 0, 0, 0, 0, 0, 0, 0]"] ;
598 -> 599 ;
600 [label="entropy = 0.0\nsamples = 2\nvalue = [0, 0, 0, 0, 0, 2, 0, 0, 0, 0, 0, 0, 0, 0\n0, 0, 0, 0, 0, 0, 0, 0, 0, 0, 0, 0, 0]"] ;
599 -> 600 ;
601 [label="shucked_weight_g <= 0.06\nentropy = 0.918\nsamples = 3\nvalue = [0, 0, 0, 0, 1, 0, 0, 2, 0, 0, 0, 0, 0, 0\n0, 0, 0, 0, 0, 0, 0, 0, 0, 0, 0, 0, 0]"] ;
599 -> 601 ;
602 [label="entropy = 0.0\nsamples = 2\nvalue = [0, 0, 0, 0, 0, 0, 0, 2, 0, 0, 0, 0, 0, 0\n0, 0, 0, 0, 0, 0, 0, 0, 0, 0, 0, 0, 0]"] ;
601 -> 602 ;
603 [label="entropy = 0.0\nsamples = 1\nvalue = [0, 0, 0, 0, 1, 0, 0, 0, 0, 0, 0, 0, 0, 0\n0, 0, 0, 0, 0, 0, 0, 0, 0, 0, 0, 0, 0]"] ;
601 -> 603 ;
604 [label="shucked_weight_g <= 0.066\nentropy = 1.985\nsamples = 14\nvalue = [0, 0, 0, 0, 0, 2, 0, 4, 6, 1, 1, 0, 0, 0\n0, 0, 0, 0, 0, 0, 0, 0, 0, 0, 0, 0, 0]"] ;
598 -> 604 ;
605 [label="whole_weight_g <= 0.167\nentropy = 1.5\nsamples = 4\nvalue = [0, 0, 0, 0, 0, 0, 0, 0, 2, 1, 1, 0, 0, 0\n0, 0, 0, 0, 0, 0, 0, 0, 0, 0, 0, 0, 0]"] ;
604 -> 605 ;
606 [label="entropy = 0.0\nsamples = 2\nvalue = [0, 0, 0, 0, 0, 0, 0, 0, 2, 0, 0, 0, 0, 0\n0, 0, 0, 0, 0, 0, 0, 0, 0, 0, 0, 0, 0]"] ;
605 -> 606 ;
607 [label="shell_weight_g <= 0.062\nentropy = 1.0\nsamples = 2\nvalue = [0, 0, 0, 0, 0, 0, 0, 0, 0, 1, 1, 0, 0, 0\n0, 0, 0, 0, 0, 0, 0, 0, 0, 0, 0, 0, 0]"] ;
605 -> 607 ;
608 [label="entropy = 0.0\nsamples = 1\nvalue = [0, 0, 0, 0, 0, 0, 0, 0, 0, 1, 0, 0, 0, 0\n0, 0, 0, 0, 0, 0, 0, 0, 0, 0, 0, 0, 0]"] ;
607 -> 608 ;
609 [label="entropy = 0.0\nsamples = 1\nvalue = [0, 0, 0, 0, 0, 0, 0, 0, 0, 0, 1, 0, 0, 0\n0, 0, 0, 0, 0, 0, 0, 0, 0, 0, 0, 0, 0]"] ;
607 -> 609 ;
610 [label="whole_weight_g <= 0.198\nentropy = 1.522\nsamples = 10\nvalue = [0, 0, 0, 0, 0, 2, 0, 4, 4, 0, 0, 0, 0, 0\n0, 0, 0, 0, 0, 0, 0, 0, 0, 0, 0, 0, 0]"] ;
604 -> 610 ;
611 [label="shucked_weight_g <= 0.076\nentropy = 1.5\nsamples = 8\nvalue = [0, 0, 0, 0, 0, 2, 0, 4, 2, 0, 0, 0, 0, 0\n0, 0, 0, 0, 0, 0, 0, 0, 0, 0, 0, 0, 0]"] ;
610 -> 611 ;
612 [label="diam_mm <= 0.255\nentropy = 1.0\nsamples = 4\nvalue = [0, 0, 0, 0, 0, 2, 0, 2, 0, 0, 0, 0, 0, 0\n0, 0, 0, 0, 0, 0, 0, 0, 0, 0, 0, 0, 0]"] ;
611 -> 612 ;
613 [label="entropy = 0.0\nsamples = 1\nvalue = [0, 0, 0, 0, 0, 1, 0, 0, 0, 0, 0, 0, 0, 0\n0, 0, 0, 0, 0, 0, 0, 0, 0, 0, 0, 0, 0]"] ;
612 -> 613 ;
614 [label="viscera_weight_g <= 0.039\nentropy = 0.918\nsamples = 3\nvalue = [0, 0, 0, 0, 0, 1, 0, 2, 0, 0, 0, 0, 0, 0\n0, 0, 0, 0, 0, 0, 0, 0, 0, 0, 0, 0, 0]"] ;
612 -> 614 ;
615 [label="entropy = 0.0\nsamples = 1\nvalue = [0, 0, 0, 0, 0, 1, 0, 0, 0, 0, 0, 0, 0, 0\n0, 0, 0, 0, 0, 0, 0, 0, 0, 0, 0, 0, 0]"] ;
614 -> 615 ;
616 [label="entropy = 0.0\nsamples = 2\nvalue = [0, 0, 0, 0, 0, 0, 0, 2, 0, 0, 0, 0, 0, 0\n0, 0, 0, 0, 0, 0, 0, 0, 0, 0, 0, 0, 0]"] ;
614 -> 616 ;
617 [label="viscera_weight_g <= 0.04\nentropy = 1.0\nsamples = 4\nvalue = [0, 0, 0, 0, 0, 0, 0, 2, 2, 0, 0, 0, 0, 0\n0, 0, 0, 0, 0, 0, 0, 0, 0, 0, 0, 0, 0]"] ;
611 -> 617 ;
618 [label="entropy = 0.0\nsamples = 2\nvalue = [0, 0, 0, 0, 0, 0, 0, 2, 0, 0, 0, 0, 0, 0\n0, 0, 0, 0, 0, 0, 0, 0, 0, 0, 0, 0, 0]"] ;
617 -> 618 ;
619 [label="entropy = 0.0\nsamples = 2\nvalue = [0, 0, 0, 0, 0, 0, 0, 0, 2, 0, 0, 0, 0, 0\n0, 0, 0, 0, 0, 0, 0, 0, 0, 0, 0, 0, 0]"] ;
617 -> 619 ;
620 [label="entropy = 0.0\nsamples = 2\nvalue = [0, 0, 0, 0, 0, 0, 0, 0, 2, 0, 0, 0, 0, 0\n0, 0, 0, 0, 0, 0, 0, 0, 0, 0, 0, 0, 0]"] ;
610 -> 620 ;
621 [label="entropy = 0.0\nsamples = 2\nvalue = [0, 0, 0, 0, 0, 0, 2, 0, 0, 0, 0, 0, 0, 0\n0, 0, 0, 0, 0, 0, 0, 0, 0, 0, 0, 0, 0]"] ;
597 -> 621 ;
622 [label="shucked_weight_g <= 0.092\nentropy = 1.738\nsamples = 13\nvalue = [0, 0, 0, 0, 6, 4, 2, 0, 0, 0, 0, 1, 0, 0\n0, 0, 0, 0, 0, 0, 0, 0, 0, 0, 0, 0, 0]"] ;
596 -> 622 ;
623 [label="entropy = 0.0\nsamples = 5\nvalue = [0, 0, 0, 0, 5, 0, 0, 0, 0, 0, 0, 0, 0, 0\n0, 0, 0, 0, 0, 0, 0, 0, 0, 0, 0, 0, 0]"] ;
622 -> 623 ;
624 [label="shell_weight_g <= 0.088\nentropy = 1.75\nsamples = 8\nvalue = [0, 0, 0, 0, 1, 4, 2, 0, 0, 0, 0, 1, 0, 0\n0, 0, 0, 0, 0, 0, 0, 0, 0, 0, 0, 0, 0]"] ;
622 -> 624 ;
